{"championKey": "pytorch_neural_network", "championName": "PyTorch Neural Network", "featureColumns": ["period", "seconds_remaining", "home_score", "away_score", "score_margin_home", "abs_score_margin", "total_score", "is_4th_quarter", "is_clutch_time", "time_remaining_fraction", "time_elapsed_fraction", "period_1", "period_2", "period_3", "period_4", "is_second_half", "is_overtime", "overtime_period_number", "is_final_5_minutes", "is_final_2_minutes", "is_final_1_minute", "home_lead", "away_lead", "tied_game", "one_possession_game", "two_possession_game", "three_possession_game", "blowout_margin", "margin_squared", "score_margin_time_weighted", "abs_margin_time_weighted", "is_shot", "is_three_pointer", "is_free_throw", "is_missed_shot", "is_made_shot", "is_turnover", "is_rebound", "is_offensive_rebound", "is_steal", "is_block", "is_foul", "is_timeout", "is_substitution", "event_value", "home_score_delta", "away_score_delta", "event_by_home", "event_by_away", "signed_event_value_home_perspective", "home_turnover", "away_turnover", "home_rebound", "away_rebound", "home_offensive_rebound", "away_offensive_rebound", "home_steal", "away_steal", "home_block", "away_block", "home_foul", "away_foul", "home_timeout", "away_timeout", "estimated_possession_side", "home_has_possession", "away_has_possession", "possession_value_home_perspective", "home_team_strength", "away_team_strength", "team_strength_diff_home", "recent_margin_change_5", "recent_total_score_change_5", "recent_event_value_5", "recent_home_perspective_event_value_5", "home_points_last_5_events", "away_points_last_5_events", "recent_margin_change_10", "recent_total_score_change_10", "recent_event_value_10", "recent_home_perspective_event_value_10", "home_points_last_10_events", "away_points_last_10_events", "home_run_last_10_events", "away_run_last_10_events"], "scalerMean": [2.5232444221967962, 1406.004312070938, 59.30788043478261, 58.588236556064075, 0.7196438787185355, 9.435883867276887, 117.89611699084668, 0.25258152173913045, 0.03489702517162471, 0.48819594169129793, 0.511804058308702, 0.24311355835240275, 0.25293907322654463, 0.2468142162471396, 0.25258152173913045, 0.49939573798627, 0.0045516304347826084, 0.005277459954233409, 0.11711956521739131, 0.054730406178489704, 0.03168978832951945, 0.49485483409610986, 0.4542048054919908, 0.05094036041189931, 0.2800986842105263, 0.4623104977116705, 0.6031822082379863, 0.1181099828375286, 156.983266590389, 0.5357578142380974, 5.689451966682161, 0.35007866132723114, 0.14796553203661328, 0.0904712528604119, 0.21077302631578948, 0.238533323798627, 0.05678990274599542, 0.21079447940503432, 0.17815717963386726, 0.03157537185354691, 0.019815503432494278, 0.08489702517162472, 0.02203232265446224, 0.09633509725400458, 0.6100543478260869, 0.2743635583524027, 0.2696188501144165, 0.09668907322654462, 0.09703232265446224, 0.0008795766590389017, 0.00560283180778032, 0.005670766590389016, 0.018714244851258582, 0.019171910755148742, 0.018714244851258582, 0.019171910755148742, 0.003389588100686499, 0.003221538901601831, 0.002177488558352403, 0.002188215102974828, 0.008609839816933638, 0.008763586956521739, 0.0, 0.0, -0.0018413901601830663, 0.10365060068649885, 0.10549199084668193, -0.0018413901601830663, 0.5010344751144165, 0.5050128360983981, -0.003978360983981692, 0.01613987414187643, 2.3174199084668192, 3.047829662471396, 0.004251287185354691, 1.368267305491991, 1.3443113558352402, 0.03409253432494279, 4.613583381006865, 6.074431493135012, 0.009882723112128147, 2.724367133867277, 2.6758330949656752, 0.04853403890160183, -0.04853403890160183], "scalerScale": [1.128057896007649, 832.5133932401316, 34.8227183633693, 34.26472891981808, 12.508612204325944, 8.243018999957041, 67.94793113147814, 0.43449291894698994, 0.18351899848733838, 0.2890671504306012, 0.2890671504306012, 0.42896311740945237, 0.43469632901813343, 0.43115769609906046, 0.43449291894698994, 0.49999963486728544, 0.06731205757639391, 0.08186126928875752, 0.32156270408845694, 0.22745326732765841, 0.17517290214285344, 0.4999735265669788, 0.49789838336750364, 0.21987596524632952, 0.44904722615116793, 0.498577477847985, 0.48923760270765454, 0.32273830697896294, 269.4989145914848, 8.7916191325937, 6.723818835075889, 0.4769943314239331, 0.3550658155409152, 0.2868557220385874, 0.4078575213153155, 0.4261867867921369, 0.23144072608790311, 0.407872733652784, 0.38264500385967837, 0.17486671423074535, 0.13936588268371528, 0.27872839878389366, 0.14678862153761071, 0.2950502436722703, 2.302446626124885, 1.0654681363225689, 1.0330214595283322, 0.2955339174191966, 0.2960017753574167, 1.0877210571642197, 0.07464207984450892, 0.07509067183523094, 0.13551391770185717, 0.1371289487786782, 0.13551391770185717, 0.1371289487786782, 0.0581214142394538, 0.056667103232010164, 0.04661273540493678, 0.04672715289462799, 0.09238890883250209, 0.09320293182178993, 1.0, 1.0, 0.45731739614348665, 0.3048067480615001, 0.3071863127059627, 0.45731739614348665, 0.054954139906076234, 0.0630328817834079, 0.08056248842832764, 1.9150127491495914, 4.095279316421789, 4.113826305453695, 2.802951274161142, 2.2975326379832164, 2.229562379270323, 2.574499190155275, 4.643832566897794, 5.631397188525682, 4.046048887435549, 3.299742952716152, 3.191084467652681, 2.7793853338095436, 2.7793853338095436], "layers": [{"weights": [[0.09040618687868118, 0.008218465372920036, -0.03257249668240547, 0.13516774773597717, -0.07939702272415161, 0.09772080928087234, -0.02283966913819313, 0.051705170422792435, 0.008116323500871658, -0.14481361210346222, 0.15807998180389404, -0.029007596895098686, 0.07995759695768356, 0.06726329028606415, 0.04121805727481842, 0.02945357747375965, 0.011450329795479774, -0.011020456440746784, 0.023324770852923393, 0.10096599161624908, -0.006511514075100422, -0.07033181935548782, 0.030806764960289, -0.019103094935417175, -0.1305953413248062, -0.08879715204238892, -0.08608992397785187, -0.022349538281559944, 0.08716887980699539, -0.21468856930732727, 0.2701396644115448, -0.060378190129995346, 0.08449404686689377, -0.004839289002120495, 0.014181016944348812, 0.04462176561355591, -0.012356603518128395, 0.023609362542629242, -0.06423978507518768, 0.02699313499033451, 0.021044131368398666, -0.038173042237758636, 0.08508843928575516, 0.07722367346286774, 0.01785128377377987, -0.023027600720524788, 0.04512949660420418, 0.12456569820642471, 0.16302017867565155, 0.0036347736604511738, -0.025517065078020096, 0.006958241108804941, -0.020229989662766457, 0.02001958340406418, 0.08081495761871338, -0.02101893164217472, 0.007855026051402092, -0.02562693879008293, 0.03978448733687401, 0.007687882054597139, 0.03755366429686546, -0.04572605341672897, 1.086367844855529e-39, 3.9200932175916747e-39, 0.05202355608344078, 0.15414132177829742, 0.2152978926897049, -0.03690759837627411, -0.12275292724370956, -0.023437896743416786, 0.017002250999212265, 0.0259883850812912, 0.16005901992321014, -0.06223415955901146, -0.0389748141169548, -0.05196234956383705, -0.005674746818840504, 0.04679727181792259, 0.0416533425450325, 0.05710657685995102, 0.008962380699813366, -0.06617998331785202, 0.060665469616651535, -0.05034683644771576, 0.0705084428191185], [-0.026026640087366104, 0.01850874349474907, -0.05252537876367569, -0.027675146237015724, 0.01184321939945221, 0.06596571952104568, -0.006017616484314203, 0.02971518784761429, 0.029632294550538063, -0.09665372222661972, -0.015119272284209728, 0.06683600693941116, 0.023260511457920074, -0.04944344237446785, -0.09355848282575607, -0.07642003148794174, 0.02625751495361328, 0.03677240386605263, -0.04564737156033516, 0.047979287803173065, 0.039935722947120667, -0.09473571181297302, -0.021683702245354652, -0.09104890376329422, -0.21377570927143097, 0.02154891937971115, 0.001985733862966299, -0.007198052480816841, -0.07172402739524841, -0.00693651894107461, 0.017572522163391113, 0.04073135182261467, -0.08065586537122726, -0.03683676943182945, 0.02254611812531948, -0.03144082427024841, -0.04119424521923065, 0.006204194389283657, -0.04507281258702278, -0.1168724074959755, -0.036473050713539124, -0.07072801887989044, -0.027341946959495544, 0.045555807650089264, -0.07851079851388931, 0.004118211567401886, -0.0026985646691173315, -0.044323571026325226, 0.025025775656104088, -0.012888551689684391, -0.017344040796160698, -0.08062095940113068, -0.017167791724205017, 0.0006268923170864582, 0.0231420136988163, 0.009831994771957397, -0.017941424623131752, 0.006141028832644224, -0.024083321914076805, -0.06842091679573059, -0.015984194353222847, -0.013238264247775078, 1.4433037870914178e-39, 7.026844780519939e-39, -0.05131612345576286, 0.02533855102956295, -0.05561584234237671, 0.007151042111217976, -0.10807331651449203, 0.12555737793445587, -0.12333870679140091, 0.03383540362119675, 0.02341274358332157, -0.005265677813440561, -0.07736261934041977, 0.009378056973218918, -0.05413014441728592, 0.056903257966041565, -0.03386497125029564, -0.002729015424847603, 0.005704067647457123, -0.05828096717596054, -0.011166214011609554, 0.07010769844055176, -0.09925026446580887], [-0.011121132411062717, -0.0793171301484108, 0.004140812903642654, 0.01884128339588642, -0.2318374067544937, -0.02099839597940445, -0.0768885612487793, 0.07777789235115051, 0.048784803599119186, -0.167613685131073, 0.09754566103219986, 0.03625759482383728, -0.018134362995624542, -0.012175608426332474, 0.0942452996969223, 0.10490203648805618, 0.015105401165783405, 0.018824338912963867, 0.008120075799524784, 0.049131009727716446, -0.0026505033019930124, -0.12301938235759735, 0.174978569149971, 0.0025065275840461254, -0.007587712723761797, -0.023699237033724785, -0.03689930960536003, -0.00037457823054865, 0.031152857467532158, -0.22665762901306152, -0.03747307136654854, -0.0826491117477417, 0.047989796847105026, 0.04172012209892273, -0.04477473348379135, -0.06842298805713654, -0.05491944029927254, -0.039997316896915436, 0.006667834706604481, 0.038172077387571335, -0.01148557011038065, 0.0470520481467247, -0.02953873574733734, -0.037033405154943466, -0.014419165439903736, 0.09065674245357513, -0.016551699489355087, 0.054895877838134766, 0.06935583800077438, -0.01851545087993145, -0.005001013167202473, 0.04483107477426529, 0.020515201613307, -0.04231768846511841, -0.021124687045812607, 0.045725561678409576, 0.07774965465068817, 0.013057291507720947, -0.02702762372791767, 7.883374928496778e-05, -0.025463886559009552, 0.029295556247234344, 1.3364926142451873e-39, -4.297317158994058e-39, 0.020146409049630165, 0.09073920547962189, 0.10001752525568008, -0.1078319177031517, -0.10553546249866486, 0.03604971244931221, -0.06708429008722305, 0.0035648872144520283, -0.018667275086045265, -0.023862967267632484, 0.018234645947813988, -0.07377880066633224, -0.07581716775894165, 0.079904705286026, 0.025034967809915543, 0.08458752930164337, -0.007473553530871868, -0.04665333405137062, -0.01364108081907034, -0.023760808631777763, -0.05453803390264511], [-0.09597919881343842, 0.011170715093612671, -0.15776997804641724, 0.07953779399394989, -0.10259777307510376, 0.12423539161682129, -0.0974891409277916, 0.08291416615247726, -0.05587491765618324, -0.007925399579107761, 0.14070142805576324, -0.009128891862928867, -0.02624278888106346, -0.019130993634462357, -0.07390778511762619, 0.060632746666669846, -0.13052251935005188, -0.011982145719230175, 0.1511627435684204, 0.14368675649166107, 0.009192850440740585, -0.2382902055978775, 0.18008774518966675, -0.026423001661896706, -0.2116752713918686, -0.10014690458774567, -0.09738803654909134, 0.007529265712946653, -0.02573874592781067, -0.23946231603622437, 0.04843859747052193, -0.03978661447763443, 0.07022244483232498, -0.004767676815390587, -0.024068396538496017, -0.01909196376800537, -0.07449586689472198, -0.0840919092297554, -0.08218762278556824, 0.04565109312534332, -0.013953855261206627, -0.04538153484463692, 0.008657611906528473, -0.047285374253988266, 8.119312406051904e-05, -0.009442520327866077, -0.016165664419531822, -0.06972654163837433, 0.032162439078092575, -0.04140910506248474, 0.014410281553864479, 0.012098959647119045, 0.051375702023506165, -0.045050062239170074, 0.032559141516685486, 0.08416315168142319, 0.044167160987854004, -0.029304325580596924, 0.049035992473363876, 0.08700606971979141, 0.018128059804439545, 0.0026128380559384823, 5.440737469526108e-40, -9.739080378996052e-39, -0.02446558140218258, -0.06466151028871536, 0.06376661360263824, 0.029536163434386253, 0.005517472978681326, -0.01462988555431366, -0.14696571230888367, 0.0022037539165467024, -0.036997660994529724, -0.037024158984422684, 0.022434724494814873, 0.03706340864300728, 0.008450637571513653, -0.006501834373921156, -0.03799378126859665, 0.10073888301849365, -0.031509093940258026, -0.029958829283714294, 0.026168454438447952, -0.03526805713772774, -0.023305503651499748], [-0.012245340272784233, -0.06012120097875595, 0.0013772401725873351, -0.09483951330184937, 0.13205799460411072, 0.02742873877286911, 0.11104008555412292, -0.045449040830135345, -0.06833109259605408, -0.014765813015401363, 0.06381649523973465, 0.05340186133980751, 0.07984434813261032, 0.04596948251128197, -0.09279858320951462, -0.006645773071795702, 0.0878424122929573, -0.03553485870361328, 0.07809939980506897, 0.1312795877456665, 0.003940665628761053, 0.10737312585115433, -0.22225871682167053, -0.06665012240409851, -0.05892426148056984, 0.034665320068597794, -0.005066152662038803, -0.07538720965385437, -0.033670615404844284, 0.3256513774394989, 0.24094568192958832, 0.029460664838552475, -0.07921475172042847, 0.04590519517660141, -0.050561290234327316, -0.028066495433449745, 0.016335204243659973, 0.04563681036233902, 0.0732259452342987, -0.07118115574121475, 0.07989445328712463, -0.032729752361774445, -0.03139584884047508, 0.0717068761587143, -0.004672356881201267, 0.09628622233867645, -0.04579942300915718, -0.016114624217152596, 0.0419110432267189, -0.0514366552233696, 0.009173421189188957, 0.04156486317515373, 0.01178798358887434, 0.04157961532473564, -0.024871136993169785, -0.062413234263658524, 0.036679353564977646, 0.04245079681277275, 0.036646004766225815, -0.007325052283704281, 0.017169417813420296, 0.010958860628306866, -6.214985699631784e-39, 5.398144161923876e-38, -0.0002933040086645633, -0.09086336940526962, -0.12842154502868652, -0.022690080106258392, -0.19306543469429016, 0.14800837635993958, -0.2141556292772293, -0.039489034563302994, 0.1143311932682991, 0.07135597616434097, 0.034574490040540695, -0.03386380895972252, -0.0503048300743103, 0.04754149913787842, 0.06323517113924026, -0.019313884899020195, -0.0004192448977846652, -0.024976011365652084, -0.07976033538579941, 0.06898410618305206, 0.0635996013879776], [-0.01229427382349968, -0.022470587864518166, -0.21612749993801117, -0.03903130069375038, -0.1111229658126831, 0.06807084381580353, -0.07534603774547577, -0.04634656384587288, 0.02047594264149666, -0.08587188273668289, 0.06912399083375931, -0.00836923997849226, -0.010793764144182205, -0.02567542903125286, 0.0059396857395768166, -0.04195135086774826, 0.03697514161467552, 0.010369796305894852, 0.10152408480644226, 0.12193424999713898, -0.023740986362099648, -0.22773025929927826, 0.22542057931423187, 0.07648597657680511, -0.1640126258134842, -0.01572246290743351, -0.10362506657838821, -0.0463954396545887, 0.005984170362353325, -0.15996062755584717, 0.05901135876774788, -0.022558290511369705, 0.04696441814303398, 0.010296011343598366, -0.035943321883678436, -0.030478505417704582, 0.023127958178520203, 0.034218236804008484, -0.06038903817534447, -0.012789886444807053, -0.0019286461174488068, -0.022241514176130295, -0.0036148137878626585, 0.029430769383907318, 0.03741418570280075, 0.07652794569730759, 0.049258776009082794, 0.0921136885881424, 0.02797948755323887, -0.04159844294190407, 0.004152619279921055, -0.031422752887010574, -0.08991441130638123, -0.03774802386760712, 0.0005306421080604196, 0.04658740386366844, -0.053928833454847336, -0.003546027233824134, 0.02058923989534378, -0.042445745319128036, -0.00037247478030622005, 0.014692643657326698, 5.1308627349161037e-39, 5.972681576971523e-39, 0.07962854951620102, 0.07302010804414749, 0.12353966385126114, 0.0032806943636387587, -0.03664117306470871, -0.017206909134984016, -0.02311842516064644, -0.011461874470114708, 0.14013603329658508, -0.01611449383199215, -0.0364641435444355, -0.04053813964128494, -0.012197619304060936, -0.01419305894523859, 0.10262105613946915, 0.09408760070800781, 0.03598582372069359, -0.0704336166381836, -0.03704098239541054, -0.03169785067439079, -0.009701929986476898], [-0.03349834308028221, -0.10320456326007843, 0.06942489743232727, -0.08596447110176086, 0.13015344738960266, -0.016574369743466377, 0.10074099153280258, -0.09763283282518387, 0.01780506782233715, -0.01577541045844555, 0.0009545913781039417, 0.07412731647491455, 0.0379955992102623, 0.018897192552685738, 0.06141716241836548, -0.1250290721654892, -0.02800966054201126, -0.06377152353525162, 0.031036727130413055, 0.03597108647227287, 0.0601867251098156, 0.09903749823570251, -0.1226133480668068, 0.05568714812397957, 0.04214475676417351, -0.01219851616770029, -0.13518811762332916, -0.046704940497875214, -0.015453465282917023, 0.2748430669307709, 0.015817388892173767, 0.0040953559800982475, -0.026630906388163567, -0.029444565996527672, 0.10591406375169754, -0.007476328872144222, 0.052211690694093704, 0.05351325124502182, 0.05088439956307411, -0.0394417867064476, -0.01725117675960064, 0.08186076581478119, 0.0026143717113882303, 0.053352240473032, -0.039662957191467285, -0.041004911065101624, 0.04546678811311722, -0.03335634246468544, 0.003910471685230732, 0.055626142770051956, 0.061669670045375824, 0.06098709627985954, -0.011869941838085651, -0.010869034565985203, -0.08393554389476776, 0.006871504709124565, -0.006373852025717497, -0.06696150451898575, 0.0045844134874641895, -0.021400444209575653, -0.0059273093938827515, -0.047742243856191635, 5.444572823422965e-39, -6.089890384423044e-39, 0.05087816342711449, -0.10073229670524597, -0.0623873770236969, 0.022223616018891335, -0.11955143511295319, -0.3322933614253998, 0.2546546161174774, -0.0954173281788826, -0.03367280960083008, 0.10927698761224747, -0.03434665501117706, 0.0525517612695694, -0.07873133569955826, -0.04684466868638992, -0.04095355048775673, 0.015800107270479202, -0.007547478191554546, 0.06925864517688751, -0.09178398549556732, 0.005258355755358934, -0.051153138279914856], [-0.08645906299352646, 0.03436915948987007, -0.09553007781505585, 0.017001165077090263, 0.16208389401435852, -0.16549783945083618, 0.01835254579782486, -0.1773645132780075, -0.0028829523362219334, 0.0236281156539917, -0.12140858918428421, -0.09202025830745697, 0.03829904645681381, 0.11985908448696136, -0.004106746520847082, 0.03574226796627045, 0.05550188198685646, -0.008985317312180996, 0.10911137610673904, 0.060183487832546234, 0.030957043170928955, 0.021912477910518646, -0.11507000774145126, 0.03951168432831764, 0.20927105844020844, 0.0905243307352066, 0.07748489081859589, -0.08203653246164322, -0.11530055105686188, 0.15409335494041443, -0.12300211191177368, -0.07356469333171844, 0.0390118733048439, -0.0705992802977562, -0.042904067784547806, -0.06127438694238663, 0.02281508781015873, 0.058142293244600296, 0.05762556567788124, -0.034729909151792526, 0.04689609631896019, -0.09643871337175369, -0.032198138535022736, -0.023238563910126686, 0.016016535460948944, -0.03687030449509621, 0.016941983252763748, 0.1106063723564148, 0.07677192240953445, -0.07830377668142319, 0.0007627558661624789, 0.04337889328598976, 0.05091650411486626, -0.05155526101589203, 0.027125801891088486, 0.03800133615732193, -0.002806637203320861, 0.05837415158748627, 0.025127632543444633, 0.10093061625957489, 0.048762332648038864, 0.021487366408109665, -5.877354045040434e-40, 2.0703063771627712e-40, 0.0699043795466423, -0.06193910911679268, 0.03827442228794098, -0.10393482446670532, 0.14520882070064545, 0.14867180585861206, -0.017062513157725334, -0.01838647574186325, 0.01997719332575798, -0.007654425222426653, -0.07096153497695923, -0.058852069079875946, 0.025093963369727135, 0.028114689514040947, 0.12666016817092896, -0.06062987819314003, 0.06237410381436348, -0.03122658096253872, 0.013956625945866108, -0.13107407093048096, 0.03151197358965874], [0.05635281279683113, 0.013958550058305264, 0.009308893233537674, 0.005965016782283783, 0.11182525753974915, 0.09066982567310333, -0.0633840262889862, -0.011342610232532024, -0.13240987062454224, -0.03865618258714676, 0.03090290166437626, 0.08230703324079514, 0.09649363905191422, 0.005786394700407982, 0.03839663043618202, -0.0009125894284807146, 0.10518443584442139, 0.04458402097225189, -0.05530109629034996, 0.057292964309453964, 0.002547148847952485, 0.08754930645227432, -0.16515092551708221, -0.11535173654556274, 0.03602951765060425, -0.018375089392066002, 0.07404779642820358, -0.013767143711447716, -0.08031506091356277, 0.19036705791950226, 0.02131715416908264, 0.044811513274908066, 0.021770672872662544, -0.07939942926168442, 0.12473320960998535, 0.06799003481864929, 0.06213938072323799, -0.12241046875715256, -0.07406307011842728, -0.03000691346824169, -0.004995505325496197, 0.08439524471759796, 0.01115416269749403, 0.0778030976653099, -0.07443228363990784, 0.017920993268489838, 0.08239974081516266, -0.07596636563539505, -0.13222704827785492, -0.044136133044958115, 0.08897799998521805, -0.008467616513371468, -0.03269369527697563, 0.027341675013303757, 0.0606389194726944, 0.05358359217643738, -0.008010358549654484, 0.0007990593439899385, 0.03924354538321495, 0.06565502285957336, 0.07855406403541565, 0.06287028640508652, -2.916441218488311e-39, -2.5449303709249798e-39, -0.02138618566095829, -0.060726769268512726, 0.010081863962113857, -0.02521194890141487, -0.05064132437109947, 0.09844128787517548, 0.014230184257030487, -0.012545794248580933, -0.06817211210727692, -0.0019503688672557473, 0.10157046467065811, -0.02349158003926277, -0.0029103222768753767, -0.0014435817720368505, -0.09149988740682602, 0.11551415920257568, -0.008887970820069313, 0.002349231857806444, -0.030967727303504944, -0.03640155866742134, -0.12438128143548965], [0.016490165144205093, 0.044961489737033844, -0.06381648033857346, -0.10234687477350235, 0.21949447691440582, 0.051008440554142, 0.0401085689663887, -0.049513813108205795, -0.07755296677350998, 0.0036156822461634874, -0.03674501180648804, -0.006808017380535603, -0.027438689023256302, -0.02606326714158058, -0.0032418821938335896, -0.008897379972040653, -0.043703652918338776, 0.010350613854825497, 0.12769998610019684, 0.044864580035209656, 0.04938117414712906, 0.13207995891571045, -0.08586782217025757, 0.037460144609212875, 0.08535381406545639, -0.021102504804730415, 0.03377903252840042, -0.03072378784418106, -0.08255556970834732, 0.2711356282234192, -0.013901887461543083, -0.07812534272670746, -0.008880154229700565, -0.016878779977560043, 0.06354305893182755, 0.05918264761567116, 0.01383932027965784, -0.08814017474651337, 0.047015730291604996, -0.041106510907411575, -0.02092779241502285, -0.0110793961212039, 0.05163772404193878, 0.07961761951446533, -0.0027716876938939095, -0.0079784682020545, 0.05479498580098152, 0.010980433784425259, -0.039165809750556946, -0.0194967370480299, 0.002268904587253928, -0.004728032276034355, 0.021494600921869278, -0.04171503335237503, 0.018870150670409203, 0.03404655680060387, 0.04044207185506821, -0.0733499601483345, 0.016338707879185677, 0.02760147489607334, -0.004969440400600433, 0.03517293184995651, -2.0828550049108e-39, -7.124033236811651e-40, 0.002488742582499981, 0.022604873403906822, -0.10077544301748276, -0.049497902393341064, -0.22005364298820496, -0.2528564929962158, 0.0699109137058258, -0.1069847121834755, 0.026745891198515892, 0.07937928289175034, -0.058552972972393036, 0.08685562759637833, -0.08650077134370804, -0.10068240761756897, -0.05637556314468384, -0.016902411356568336, -0.00889112800359726, 0.03960459679365158, -0.030460108071565628, 0.09239059686660767, 0.04640621691942215], [0.05596194043755531, -0.09042976796627045, -0.15604524314403534, 0.07959317415952682, -0.1685929298400879, 0.08233769237995148, 0.05440220981836319, 0.06773899495601654, 0.05328486114740372, 0.0386863648891449, 0.07292086631059647, -0.07325758039951324, 0.06034507229924202, -0.01948610693216324, -0.01585128717124462, 0.1263236403465271, 0.028878657147288322, 0.024021873250603676, 0.0233833659440279, -0.025207825005054474, 0.04299161955714226, -0.016655195504426956, 0.1323533058166504, 0.013932334259152412, 0.001349088386632502, -0.04149189963936806, -0.004106687381863594, 0.04141951724886894, 0.09232591092586517, -0.18454237282276154, 0.11394894123077393, 0.024493655189871788, 0.016351033002138138, 0.04375270754098892, 0.049297645688056946, 0.0716715082526207, 0.06918133795261383, -0.001993380021303892, -0.07063809782266617, -0.004753293469548225, 0.002879686187952757, 0.000572306162212044, 0.0028264205902814865, -0.0026980717666447163, 0.062399137765169144, 0.042962923645973206, -0.032005779445171356, -0.05083651468157768, 0.005460841115564108, -0.043204352259635925, 0.09449809789657593, 0.015089861117303371, 0.08046355843544006, 0.0065478072501719, 0.010153573006391525, 0.039046529680490494, -0.023716537281870842, 0.026364006102085114, 0.012209320440888405, -0.05008228123188019, -0.03919992595911026, 0.0744357481598854, 6.417572819917687e-39, 3.14428394099674e-39, 0.0578216053545475, -0.040879737585783005, 0.05650360882282257, 0.00106228596996516, -0.005587530788034201, -0.03838343173265457, -0.06553346663713455, 0.044591158628463745, -0.015712488442659378, 0.005563764832913876, 0.04149956256151199, 0.002665997250005603, 0.04115864634513855, 0.07105392962694168, -0.009779846295714378, 0.004056286532431841, 0.04118264466524124, -0.008814232423901558, -0.007479619700461626, -0.07959575206041336, -0.002148860599845648], [-0.06680591404438019, -0.06284990161657333, -0.05940772220492363, 0.035065069794654846, -0.21413058042526245, 0.01251586526632309, -0.07810918986797333, -0.0431213416159153, -0.046880174428224564, -0.10206897556781769, 0.031786881387233734, -0.031003151088953018, -0.10952019691467285, -0.08753282576799393, 0.04205162078142166, -0.07095158845186234, -0.04969312250614166, 0.13900688290596008, 0.10540413111448288, 0.0972297266125679, -0.02158214896917343, -0.23392651975154877, 0.13239631056785583, 0.023249240592122078, -0.12817437946796417, -0.1485401690006256, -0.05945302173495293, -0.050766125321388245, 0.025300361216068268, -0.26432546973228455, 0.17981576919555664, 0.0768762081861496, -0.029476720839738846, 0.0011554267257452011, 0.026993634179234505, 0.025714853778481483, 0.03125520795583725, 0.05449710786342621, -0.024828869849443436, 0.004722082056105137, 0.011150144040584564, -0.04749555513262749, 0.03686727210879326, 0.0371866375207901, 0.04588958993554115, 0.03317367658019066, -0.03810935467481613, 0.06590355187654495, 0.09743980318307877, -0.03767348825931549, -0.029016315937042236, 0.041843149811029434, -0.012247917242348194, 0.015025888569653034, -0.05129195377230644, -0.03667118400335312, 0.020271003246307373, -0.061331816017627716, -0.03336689621210098, 0.05527447164058685, -0.04183438792824745, -0.02048974670469761, 2.1667412151403694e-38, 6.954476122628348e-40, -0.09801135212182999, 0.08160318434238434, -0.01989581249654293, -0.05458754673600197, 0.007691760081797838, -0.02531151846051216, -0.0874720886349678, -0.04828503727912903, 0.05119938403367996, -0.021360499784350395, -0.003848504042252898, 0.013461101800203323, -0.03939918801188469, -0.04070015251636505, 0.05220606550574303, -0.02688428945839405, 0.07349201291799545, -0.09764966368675232, 0.004482099786400795, 0.06340101361274719, 0.05176374688744545], [-0.14938455820083618, -0.022198745980858803, -0.01596864126622677, -0.10122050344944, 0.1682966947555542, 0.044879525899887085, 0.06664331257343292, -0.04612453654408455, -0.007031613029539585, -0.044605471193790436, 0.03407055139541626, 0.04421618580818176, -0.06621351093053818, -0.15217497944831848, 0.01233629323542118, 0.04931517690420151, 0.044842518866062164, -0.04618816450238228, 0.08417383581399918, 0.06479541957378387, -0.0064854612573981285, 0.18096737563610077, -0.11055594682693481, 0.05252494290471077, -0.15040981769561768, -0.021151671186089516, -0.04142967239022255, -0.08115478605031967, 0.04512769356369972, 0.1624719351530075, 0.20821313560009003, -0.02858661487698555, -0.05576054006814957, -0.04061669856309891, 0.07117313891649246, 0.05156483128666878, -0.010666514746844769, 0.0010425166692584753, -0.007144541945308447, -0.0019417476141825318, -0.03663334622979164, 0.03512631356716156, 0.022933825850486755, 0.019025104120373726, -0.008644669316709042, 0.04171309247612953, -0.049064863473176956, 0.010271459817886353, 0.016572732478380203, 0.06113734841346741, 0.06376665085554123, 0.07177376747131348, 0.004901682026684284, 0.003015098161995411, -0.033150192350149155, 0.0005382683593779802, 0.019100619480013847, 0.016672102734446526, -0.05932841822504997, 0.05044934153556824, -0.013739307411015034, -0.05189858004450798, 2.103825436429421e-40, -1.5319695461231063e-40, 0.018784841522574425, 0.0029457355849444866, 0.017367109656333923, 0.07169181853532791, -0.22413064539432526, -0.3060387372970581, 0.07724488526582718, -0.006180975120514631, -0.035534076392650604, 0.025877900421619415, 0.03619161620736122, 0.0021668628323823214, -0.01854081079363823, 0.023785287514328957, 0.09429722279310226, 0.03903582692146301, -0.09175129979848862, 0.04872411862015724, -0.036592692136764526, 0.06004622206091881, -0.0031291500199586153], [0.11297179013490677, 0.014752664603292942, 0.08843664079904556, -0.019489102065563202, 0.19129842519760132, 0.01584305800497532, -0.05745122581720352, 0.028043022379279137, -0.004494297318160534, -0.03190324455499649, 0.03704154118895531, -0.04642583429813385, 0.0607788972556591, 0.02522490918636322, 0.10337703675031662, -0.027352552860975266, -0.027481146156787872, 0.03373216837644577, -0.0756145790219307, 0.05922050401568413, -0.09700783342123032, 0.14176641404628754, 0.010202566161751747, 0.05579497665166855, -0.10073620080947876, -0.18261681497097015, 0.05174263194203377, -0.06494519859552383, -0.07319530099630356, 0.34535691142082214, 0.05387013405561447, -0.021100999787449837, 0.049110542982816696, 0.02361193113029003, -0.06385558098554611, 0.05934999883174896, -0.020102404057979584, 0.007290618494153023, -0.10669098049402237, -0.04621151462197304, -0.025264227762818336, -0.03710217401385307, -0.06464579701423645, 0.02901640720665455, 0.01088394783437252, -0.09725544601678848, 0.07366497069597244, -0.026786213740706444, 0.008899763226509094, -0.021299654617905617, -0.018163057044148445, 0.08141656219959259, 0.037645839154720306, -0.047577258199453354, 0.06096252053976059, 0.03477346897125244, 0.017005274072289467, 0.03380884975194931, 0.0693972185254097, -0.05248032137751579, 0.03695915639400482, 0.013897852972149849, -2.2479052629731414e-38, -3.0097228546614854e-39, 0.0025800573639571667, -0.04456225410103798, -0.09061871469020844, 0.008803240954875946, 0.2833029627799988, 0.1732313185930252, 0.2451929748058319, -0.013131237588822842, 0.024143656715750694, 0.09293898940086365, -0.004667578265070915, -0.00199710251763463, 0.001523734419606626, -0.11070723086595535, -0.0648246482014656, 0.02940334938466549, 0.00902837235480547, 0.0008118021069094539, -0.056822653859853745, 0.04911036789417267, 0.03258555009961128], [-0.04147753864526749, 0.034875042736530304, 0.01376483216881752, -0.09241118282079697, -0.19383464753627777, -5.064531433163211e-05, -0.09209529310464859, 0.035787757486104965, -0.05864537134766579, -0.07113940268754959, -0.004857897292822599, 0.034740742295980453, -0.12492601573467255, 0.07364235073328018, 0.037676215171813965, -0.04788639396429062, -0.017514431849122047, -0.04130350425839424, 0.13682377338409424, 0.09231274574995041, 0.10787899792194366, -0.1740434318780899, 0.16500094532966614, 0.04513363540172577, -0.15084832906723022, 0.03544940426945686, 0.010272478684782982, 0.07138505578041077, 0.10624648630619049, -0.2240699827671051, 0.024873826652765274, 0.016352398321032524, 0.0126402098685503, -0.0619940459728241, 0.03578009456396103, -0.0825827494263649, 0.049491770565509796, 0.09167905151844025, 0.027088705450296402, -0.08099924027919769, -0.010635758750140667, 0.004867568612098694, 0.023087505251169205, 0.06265406310558319, 0.069591224193573, -0.006084937136620283, 0.03176485002040863, 0.023507175967097282, 0.1228431984782219, 0.018391897901892662, 0.006549295037984848, -0.00901017989963293, -0.054854847490787506, 0.029151853173971176, -0.003786620683968067, 0.067439503967762, -0.06788242608308792, -0.04100079834461212, -0.01713094674050808, -0.023223580792546272, 0.045090436935424805, -0.10835348814725876, 3.4829819837194415e-39, 9.757925040744292e-39, -0.05081532895565033, 0.16778086125850677, 0.08430996537208557, 0.04475158452987671, -0.06823307275772095, -0.06552036851644516, -0.06611567735671997, 0.08060083538293839, -0.05326397716999054, -0.03914066031575203, 0.05807289853692055, 0.057594213634729385, -0.007941394113004208, 0.07013039290904999, 0.010645666159689426, -0.059072356671094894, -0.006432316266000271, 0.037944041192531586, 0.014279060065746307, -0.01141581404954195, -0.04003824293613434], [0.0717984139919281, 0.023382289335131645, -0.009822849184274673, 0.06252396106719971, -0.1199096068739891, -0.002060727681964636, -0.0370391421020031, -0.0063879843801259995, -0.11409968882799149, -0.13357436656951904, 0.12706385552883148, 0.01936190016567707, -0.011851880699396133, 0.020529739558696747, 0.04359112307429314, 0.08439800888299942, 0.01799183338880539, 0.11333522945642471, -0.029790429398417473, 0.08096891641616821, 0.08988634496927261, -0.18819747865200043, 0.03362618386745453, -0.05508825555443764, 0.024225527420639992, -0.11681949347257614, -0.0566948838531971, 0.04081660881638527, 0.0816158577799797, -0.25797346234321594, 0.15997199714183807, 0.07991333305835724, -0.07260505110025406, -0.018238866701722145, 0.02157340943813324, 0.025656672194600105, 0.09832488000392914, 0.019174495711922646, -0.055085357278585434, 0.07555212825536728, -0.06779871135950089, -0.08485989272594452, 0.016810471192002296, -0.022644832730293274, -0.02490047924220562, 0.0024156933650374413, 0.025485198944807053, 0.01724371127784252, 0.059815723448991776, -0.06258215010166168, -0.028348209336400032, 0.043122004717588425, 0.0403604619204998, -0.04057987034320831, -0.008772240951657295, -0.026802651584148407, -0.0089248176664114, 0.08353838324546814, 0.043187402188777924, -0.03827989473938942, 0.03658942133188248, 0.029367463663220406, 6.546904540643775e-38, 4.9022997449970114e-39, -0.03566636145114899, 0.03937830030918121, 0.018824473023414612, 0.018444398418068886, -0.04577699676156044, -0.036082323640584946, -0.08106538653373718, -0.007724194321781397, 0.050987400114536285, -0.07900916039943695, 0.01866181753575802, 0.022308174520730972, 0.006250639446079731, 0.056654393672943115, 0.0021435616072267294, 0.03729379177093506, 0.008033993653953075, -0.05768221616744995, 0.10260036587715149, -0.01588105969130993, 0.0013026295928284526], [-0.03252983093261719, -0.02655842714011669, -0.12132612615823746, 0.05318606272339821, -0.052160900086164474, 0.03750580549240112, -0.06141811981797218, -0.03932156413793564, 0.013040353544056416, 0.03682824224233627, 0.05713192746043205, 0.07026489078998566, -0.04399007186293602, -0.06723020225763321, 0.06931178271770477, 0.0861261785030365, 0.05767566338181496, 0.007934733293950558, 0.10960760712623596, 0.09382202476263046, 0.07393322139978409, -0.17699886858463287, 0.156169593334198, -0.08502744138240814, -0.07136417925357819, -0.12526017427444458, -0.19983543455600739, 0.07796750962734222, 0.06639053672552109, -0.24508710205554962, 0.09424786269664764, -0.005164690315723419, 0.0382891520857811, -0.03225273638963699, 0.044136278331279755, -0.000540610053576529, -0.010153241455554962, 0.0180387981235981, -0.0539064034819603, -0.09282439947128296, 0.0009180990746244788, -0.08893737941980362, -0.05311845988035202, 0.016134239733219147, -0.07510603219270706, -0.046053145080804825, -0.05621175840497017, 0.05478751286864281, -0.024760589003562927, 0.03468942642211914, -0.029442045837640762, -0.00699928542599082, 0.04597087204456329, -0.04463759437203407, 0.006963931489735842, 0.0034957679454237223, -0.012007910758256912, 0.01676040142774582, -0.02611630968749523, 0.04948804900050163, 0.003856790019199252, 0.03800337761640549, 5.420715717067835e-39, -1.708083335820985e-39, -0.015598111785948277, -0.046739671379327774, 0.08255676925182343, -0.09398949891328812, -0.053604841232299805, 0.04822143539786339, -0.00028818799182772636, 0.051268648356199265, 0.007538181263953447, 0.13220146298408508, -0.10032251477241516, -0.0693526640534401, 0.0466793030500412, 0.03302791714668274, -0.0704883560538292, 0.08835874497890472, -0.06203931197524071, -0.08059621602296829, -0.037033263593912125, -0.14647087454795837, -0.03707947954535484], [-0.05616491287946701, 0.00038063194369897246, 0.10364734381437302, -0.05471152067184448, 0.02015460655093193, 0.02479369565844536, -0.03416287526488304, 0.05159159004688263, -0.013791046105325222, -0.02453012205660343, -0.026401741430163383, 0.025452351197600365, -0.007704779505729675, 0.12361831218004227, -0.03890185430645943, -0.03996939957141876, -0.019995570182800293, -0.04947703704237938, -0.0665351077914238, -0.04330204054713249, -0.016124699264764786, 0.1635923832654953, -0.0702739879488945, 0.02576455846428871, 0.06601938605308533, 0.05179214105010033, 0.019198967143893242, -0.06882672756910324, 0.05686415359377861, 0.039364613592624664, 0.0641983300447464, 0.05076275393366814, 0.024183962494134903, -0.02333248034119606, 0.0073501234874129295, 0.018880769610404968, 0.015522975474596024, -0.060339510440826416, -0.06506869941949844, -0.0264557134360075, 0.0005930278566665947, 0.018919687718153, -0.00014873247710056603, -0.03568015620112419, 0.09703660756349564, -0.04021988436579704, -0.025153525173664093, -0.05502495914697647, -0.09883163869380951, -0.0083071393892169, -0.0026835938915610313, 0.014124460518360138, 0.026273375377058983, 0.01741328090429306, 0.08765573799610138, 0.03917163237929344, -0.006816069129854441, -0.016604557633399963, -0.0040726796723902225, 0.008180112577974796, -0.022762402892112732, 0.02591935731470585, 5.6245569994793086e-39, 3.9062357770779665e-39, 0.05971808731555939, -0.06651721149682999, 0.004146169871091843, 0.0694955512881279, 0.11799336969852448, -0.20422649383544922, 0.29133477807044983, 0.055094022303819656, 0.02617848478257656, 0.06108146533370018, 0.015893127769231796, 0.06399940699338913, 0.00891522690653801, 0.03493143990635872, 0.07885884493589401, -0.026073772460222244, 0.022754449397325516, -0.04491277039051056, -0.01713385432958603, 0.018309811130166054, -0.027785923331975937], [0.12271761894226074, 0.010019590146839619, -0.10416741669178009, 0.043136708438396454, -0.20094141364097595, -0.032301705330610275, 0.025818180292844772, 0.02974017895758152, -0.13821092247962952, -0.08285588026046753, 0.01457621343433857, 0.0854366347193718, 0.0019275476224720478, 0.10180801153182983, 0.08832625299692154, 0.07227059453725815, 0.022466544061899185, 0.048173438757658005, -0.04535268619656563, 0.0061192079447209835, 0.0402519628405571, -0.11747948080301285, 0.1500382423400879, 0.023040998727083206, 0.09297190606594086, -0.025962742045521736, -0.10943102836608887, -0.03550441935658455, -0.028531357645988464, -0.3104119300842285, 0.07668953388929367, 0.0351286344230175, 0.09453229606151581, -0.03173357620835304, -0.04305121302604675, -0.01941308192908764, 0.011278587393462658, 0.006116876844316721, -0.02882554568350315, 0.00915871188044548, -0.013179372996091843, 0.06761230528354645, -0.012281217612326145, -0.02122793160378933, 0.008516606874763966, 0.002626179251819849, -0.052070844918489456, 0.044080667197704315, 0.03128433972597122, -0.03224298357963562, -0.023774053901433945, 0.021346790716052055, -0.10816999524831772, 0.00984304491430521, -0.030520914122462273, 0.049078796058893204, -0.023440340533852577, -0.0001399021130055189, 0.024138253182172775, 0.06722413003444672, 0.011919003911316395, 0.05945398658514023, -6.062867744837004e-39, -1.2841961555565851e-39, 0.048781897872686386, 0.00434355391189456, 0.004142425488680601, -0.035116687417030334, -0.1059265285730362, 0.03253159299492836, -0.07787039875984192, 0.08354774862527847, -0.058154650032520294, 0.0059514534659683704, -0.01431360188871622, 0.03944165259599686, -0.008880923502147198, 0.09463835507631302, 0.02767764776945114, 0.02057705633342266, 0.006399931386113167, 0.028093066066503525, -0.07215464115142822, -0.0665673166513443, 0.08644231408834457], [-0.06867970526218414, -0.018355717882514, 0.017797427251935005, 0.10179773718118668, 0.013180351816117764, -0.10699096322059631, -0.009401833638548851, 0.004789159167557955, -0.026914870366454124, 0.07919403165578842, -0.01831243559718132, 0.016616379842162132, -0.05746915936470032, 0.10545264929533005, -0.0005822967505082488, 0.07621544599533081, -0.04362775757908821, -0.015056449919939041, -0.004040704574435949, -0.06072846055030823, -0.064920574426651, -0.01218406856060028, -0.036506157368421555, 0.009216013364493847, 0.06334283947944641, 0.09551331400871277, 0.0657716691493988, -0.16483524441719055, -0.035596076399087906, 0.11589586734771729, -0.026719920337200165, 0.12479370832443237, -0.0773191899061203, 0.03400081396102905, -0.008140617050230503, -0.009462408721446991, -0.05059632658958435, 0.032726410776376724, -0.06602172553539276, 0.10792658478021622, -0.125397190451622, 0.0017189938807860017, -0.01916811428964138, 0.0035529634915292263, -0.05827215313911438, 0.00998386088758707, 0.015161293558776379, -0.04207640886306763, -0.014870591461658478, -0.04198863357305527, -0.028064439073204994, -0.04827794432640076, 0.046328336000442505, 0.02167459763586521, -0.05168839544057846, -0.042697228491306305, 0.01640148274600506, -0.01759425364434719, 0.015774521976709366, 0.06589590758085251, -0.020209752023220062, 0.0369454063475132, -3.839557792249999e-40, -1.906428725655377e-39, -0.048003681004047394, -0.1290786862373352, -0.08217325061559677, 0.05322973057627678, 0.3874707818031311, -0.10500012338161469, 0.3894397020339966, -0.10304129123687744, -0.057484257966279984, -0.09156076610088348, 0.031386882066726685, -0.018791241571307182, -0.04248850420117378, -0.01820862852036953, 0.08125799149274826, -0.0708383247256279, -0.02396753430366516, 0.04138702154159546, 0.055419303476810455, -0.013727604411542416, -0.032374851405620575], [-0.06051507592201233, 0.018432267010211945, 0.15443570911884308, -0.03560878708958626, 0.2695144712924957, 0.05861421674489975, 0.1134304478764534, -0.018048981204628944, 0.05854571983218193, 0.04794677346944809, 0.08310061693191528, 0.05731123685836792, 0.028582286089658737, 0.04948101565241814, 0.059719331562519073, -0.060254789888858795, 0.011917670257389545, -0.05289154499769211, 0.12906743586063385, -0.0014380397042259574, 0.05623982474207878, 0.21918973326683044, -0.26064595580101013, -0.04546774551272392, -0.06642577052116394, 0.054625652730464935, 0.010614096187055111, -0.13665051758289337, 0.005193732213228941, 0.27294135093688965, 0.006865192670375109, 0.01915707066655159, 0.008931892924010754, -0.00968234520405531, 0.011523145250976086, -0.022984672337770462, 0.006220162380486727, -0.019737830385565758, -0.05959254130721092, 0.0638689249753952, 0.0004013573343399912, 0.0713510513305664, 0.058115147054195404, 0.05960548296570778, 0.0440586656332016, -0.0013609540183097124, -0.013825002126395702, 0.03377107158303261, -0.052370134741067886, 0.00896381214261055, 0.0913102924823761, 0.0526219978928566, -0.07911998778581619, 0.08542466163635254, -0.009184380061924458, -0.015263835899531841, 0.1099129468202591, 0.0034938352182507515, 0.03605072572827339, 0.04887401685118675, -0.03494171425700188, -0.013236443512141705, 1.3907466868884512e-39, -6.152758238726512e-39, -0.0652475580573082, -0.08924832195043564, -0.046664852648973465, 0.09132570773363113, -0.046265143901109695, 0.0636868104338646, -0.04608957841992378, -0.12119868397712708, -0.07031095027923584, 0.010464702732861042, 0.03771914541721344, 0.009067157283425331, -0.031907789409160614, -0.10278844833374023, -0.0019419413292780519, -0.05628443509340286, 0.022154025733470917, 0.03324861824512482, -0.06298556178808212, 0.04317251220345497, -0.026317741721868515], [0.029110796749591827, -0.03522496297955513, 0.026410769671201706, -0.03428228199481964, -0.22336815297603607, 0.022437304258346558, -0.06931305676698685, -0.03623943030834198, 0.05488203465938568, -0.07938071340322495, 0.02134532481431961, -0.058680977672338486, -0.08293594419956207, 0.06095516309142113, 0.03366323187947273, -0.031024552881717682, -0.07867364585399628, 0.104509137570858, 0.03890581429004669, 0.0357583686709404, 0.006984534207731485, -0.2238568812608719, 0.1914544701576233, 0.05503104254603386, -0.13209375739097595, -0.03643147274851799, -0.10699540376663208, -0.022891815751791, 0.07624384760856628, -0.20906665921211243, 0.151852086186409, 0.003885373705998063, -0.05660358816385269, -0.05488123744726181, 0.09209919720888138, -0.0348639190196991, 0.013499729335308075, 0.027510197833180428, 0.029337197542190552, 0.05608556792140007, -0.027173412963747978, 0.014778810553252697, -0.0322856679558754, -0.058793459087610245, 0.09868937730789185, 0.02925465814769268, -0.001041073934175074, -0.021765155717730522, -0.07305802404880524, 0.05730009078979492, -0.01093012373894453, -0.04328315705060959, -0.008188560605049133, 0.054834943264722824, -0.0837261900305748, -0.05553733929991722, 0.04518016055226326, 0.03698021546006203, -0.00365873402915895, -0.0352490097284317, -0.0057135228998959064, -0.010874807834625244, -4.937078571583089e-39, -4.5929645102957723e-39, -0.07862702012062073, 0.07569476962089539, -0.036365803331136703, 0.058413080871105194, -0.052559755742549896, 0.04800570756196976, -0.03545725718140602, -0.08882708102464676, 0.004056863021105528, -0.01288343034684658, 0.043483227491378784, 0.0009718058863654733, -0.05440540984272957, 0.04117201268672943, 0.13886584341526031, -0.038319773972034454, 0.036189641803503036, -0.012322667054831982, 0.002204412827268243, 0.06987957656383514, 0.11375321447849274], [0.0529068261384964, 0.009034165181219578, 0.14270074665546417, 0.041629593819379807, 0.03463462367653847, 0.12797386944293976, 0.004012322053313255, 0.08353175967931747, -0.09233785420656204, -0.06493625044822693, 0.001220140140503645, -0.04433376342058182, 0.07005541771650314, -0.004232286475598812, 0.10512875765562057, -0.021802609786391258, -0.029674695804715157, -0.028461115434765816, 0.16575340926647186, 0.013370690867304802, 0.11694946140050888, 0.13708195090293884, -0.17972472310066223, 0.07006876915693283, -0.18665023148059845, -0.10717172920703888, -0.04772939532995224, -0.05912794545292854, 0.1592627912759781, 0.08478737622499466, 0.2760698199272156, -0.11218041926622391, -0.05756295844912529, -0.01184224896132946, 0.014675415121018887, 0.0914572924375534, -0.021869417279958725, 0.045991141349077225, -0.005090523511171341, 0.006943584885448217, -0.08153858035802841, -0.0348442979156971, 0.036635007709264755, -0.07877489179372787, -0.04942541942000389, 0.0003884124744217843, 0.025391913950443268, -0.01129626203328371, 0.08229988813400269, -0.028962144628167152, -0.04284163936972618, -0.0029554138891398907, 0.04019608348608017, -0.027841340750455856, 0.11748743802309036, -0.008225996978580952, 0.0199744813144207, -0.05601299926638603, 0.03440120443701744, 0.05839254707098007, -0.05949748679995537, 0.0036865109577775, 6.721286045180055e-40, -3.924795975237949e-39, -0.04821334406733513, -0.011663650162518024, 0.0812264233827591, -0.05613481253385544, 0.09851804375648499, -0.12176497280597687, 0.2221066951751709, -0.044952571392059326, 0.09266811609268188, 0.07799099385738373, 0.0096595399081707, 0.04377757012844086, -0.12027174234390259, -0.021609988063573837, 0.1399240493774414, -0.034140318632125854, -0.0241363737732172, -0.043486956506967545, -0.10198254138231277, 0.0074819535948336124, -0.08695505559444427], [0.06486411392688751, -0.18232418596744537, -0.02797105349600315, 0.09389187395572662, -0.07964808493852615, 0.07422401010990143, 0.01885490119457245, -0.015273630619049072, -0.06279441714286804, -0.14047721028327942, 0.035824213176965714, -0.07468225806951523, 0.0885600820183754, 0.012431634590029716, 0.047513239085674286, 0.10982289910316467, -0.08006716519594193, -0.10613534599542618, 0.017820945009589195, 0.026861760765314102, 0.043880850076675415, -0.17824453115463257, 0.09446143358945847, -0.04692644998431206, 0.03252497315406799, -0.02720640040934086, -0.045648615807294846, 0.03780938312411308, 0.07180649042129517, -0.12280213832855225, 0.093372642993927, -0.05403698608279228, -0.04079229012131691, -0.0010410870891064405, -0.008956431411206722, 0.04926680400967598, -0.008220155723392963, 0.04417004436254501, -0.05226834490895271, -0.028889399021863937, -0.07832471281290054, -0.08395805954933167, 0.051812298595905304, -0.051190439611673355, 0.03178069368004799, 0.026950955390930176, -0.041544120758771896, 0.07038377970457077, 0.05548491328954697, 0.015476579777896404, -0.012616058811545372, -0.046915628015995026, 0.020033294335007668, -0.023411475121974945, -0.031137673184275627, 0.009658134542405605, -8.462477126158774e-06, 0.03858311101794243, -0.011944200843572617, -0.01631622575223446, 0.011320387944579124, 0.03913625702261925, 1.9070873359336095e-39, -2.49978894219522e-39, -0.021185938268899918, 0.10314945131540298, 0.1284504532814026, 0.03682725131511688, -0.11793886870145798, 0.05187392979860306, -0.05694488435983658, -0.05320775508880615, 0.03576885908842087, 0.053435809910297394, 0.05501401051878929, 0.08265233039855957, 0.08805756270885468, -0.03786550089716911, 0.018385978415608406, -0.009178557433187962, -0.06194031611084938, -0.02297731302678585, -0.07070640474557877, 0.024204866960644722, 0.08236338943243027], [0.00011240087042097002, -0.08080532401800156, -0.11059979349374771, -0.033165913075208664, -0.0884273424744606, 0.12687301635742188, -0.0015185772208496928, 0.08619249612092972, 0.01904972456395626, 0.005830754525959492, -0.004648782312870026, 0.036533378064632416, 0.06977906823158264, -0.10081079602241516, -0.05219242349267006, -0.012849902734160423, -0.0012800508411601186, 0.05304364487528801, -0.004201297182589769, 0.02499343827366829, 0.10545817762613297, -0.09838825464248657, 0.12263274937868118, -0.06584290415048599, -0.07346252351999283, -0.07393896579742432, -0.03464305028319359, -0.005912709981203079, 0.10301224887371063, -0.13984033465385437, 0.04473898187279701, 0.09095697849988937, -0.09836661070585251, 0.04201287031173706, 0.010675135999917984, 0.032280221581459045, 0.04964006319642067, -0.04024133458733559, 0.008591889403760433, 0.03947283700108528, -0.024623902514576912, 0.08487128466367722, -0.0007477474282495677, -0.05534234642982483, 0.016547149047255516, 0.060518376529216766, -0.07589906454086304, -0.055252399295568466, 0.12963765859603882, -0.027494801208376884, -0.00018332361651118845, -0.002038737293332815, -0.01697726920247078, 0.10879477858543396, -0.08203507959842682, -0.009619927033782005, 0.0032006369438022375, -0.007035768125206232, -0.03137380629777908, 0.0617310032248497, 0.06563100963830948, -0.015253349207341671, 3.0559012442548454e-39, 1.5164361526460657e-39, -0.04557587206363678, 0.09762339293956757, 0.0807754248380661, 0.05320477858185768, -0.06383383274078369, -0.015852348878979683, 0.012330749072134495, -0.002246435498818755, 0.007240268401801586, 0.05109662562608719, 0.0579974465072155, 0.0005846495623700321, 0.06593786925077438, 0.06948225945234299, 0.005773930344730616, 0.04253099113702774, 0.022623462602496147, -0.011836172081530094, 0.06654166430234909, 0.08384587615728378, 0.03649729862809181], [0.017062854021787643, 0.0351671539247036, -0.00530744856223464, 0.05073922500014305, 0.21973809599876404, 0.14021077752113342, 0.027217522263526917, -0.06737364083528519, -0.017756570130586624, -0.10051394999027252, 0.08280017226934433, 0.009262118488550186, -0.08077167719602585, 0.03995814546942711, -0.027366962283849716, 0.10451963543891907, -0.071763776242733, 0.026502767577767372, 0.04211310297250748, 0.04348492994904518, 0.09728638827800751, 0.1485675871372223, -0.2400851994752884, 0.09133585542440414, -0.12323246896266937, 0.0026678945869207382, -0.13758818805217743, -0.04757494479417801, 0.006341300904750824, 0.3546811044216156, 0.20392751693725586, 0.07071275264024734, 0.029294243082404137, 0.029269926249980927, -0.021097538992762566, 0.0014882738469168544, -0.04146083444356918, -0.0008326671086251736, -0.03169187530875206, 0.05682763457298279, 0.04933328554034233, -0.038104280829429626, -0.05012839660048485, 0.06382705271244049, 0.02198142185807228, -0.0001524549297755584, -0.020649263635277748, -0.08365801721811295, -0.026374781504273415, -0.003979031927883625, 0.04793405160307884, 0.0892428308725357, 0.007754025515168905, -0.0056104958057403564, 0.04249180480837822, 0.0007623278070241213, -0.002332596341148019, -0.02920910343527794, 0.021170450374484062, 0.013710390776395798, 0.028985613957047462, 0.03007902391254902, -6.237580236070558e-39, 1.5488832185875068e-39, -0.038943249732255936, -0.01830965280532837, -0.07718420773744583, 0.04795295000076294, -0.17760373651981354, 0.0779394656419754, -0.22324523329734802, -0.0838872417807579, -0.01384945772588253, 0.02659458853304386, 0.011653782799839973, 0.05927032232284546, -0.04940341040492058, -0.15513405203819275, -0.01809755153954029, -0.06463709473609924, -0.021685166284441948, -0.03870273381471634, 0.043318744748830795, 0.02602134644985199, -0.004647484980523586], [0.011244953610002995, -0.011850690469145775, 0.009619385935366154, 0.049302492290735245, -0.0156930573284626, 0.048975568264722824, -0.03534753993153572, 0.005996316205710173, -0.06067198887467384, 0.003896859474480152, 0.07194037735462189, 0.01092528272420168, -0.0022783849854022264, -0.030101940035820007, 0.032173193991184235, 0.009637229144573212, -0.04611223563551903, 0.02763182297348976, 0.04313180595636368, 0.014586374163627625, 0.010748055763542652, -0.0047468869015574455, -0.048272136598825455, -0.043109260499477386, 0.03027152083814144, -0.03854645788669586, 0.027337513864040375, 0.03712897747755051, 0.012119396589696407, -0.04531100019812584, 0.05867520347237587, -0.010057618841528893, 0.0029569300822913647, -0.0172602329403162, 0.016252517700195312, -0.010856023989617825, -0.006024230737239122, -0.04082880914211273, 0.012998540885746479, -0.029104871675372124, -0.08781164884567261, -0.010231759399175644, -0.007387208286672831, -0.019065067172050476, -0.0032136354129761457, 0.008252960629761219, -0.018822066485881805, -0.02796759642660618, -0.02445465326309204, -0.038448821753263474, -0.012224886566400528, 0.016205081716179848, 0.062171511352062225, -0.014294018037617207, 0.0329647995531559, -0.017018508166074753, 0.010212629102170467, 0.053221769630908966, 0.05394945666193962, 0.013298744335770607, 0.01788351498544216, 0.017366142943501472, 2.9598394319284505e-39, -3.207695499104367e-39, 0.03319110721349716, -0.06357674300670624, -0.06725837290287018, -0.03385915979743004, 0.004898095037788153, -0.062321167439222336, -0.035161081701517105, 0.052730683237314224, -0.06204885616898537, 0.005835594609379768, -0.006824307143688202, -0.015992755070328712, 0.02257300168275833, 0.0426567904651165, -0.01476303767412901, 0.030340949073433876, 0.03446169197559357, 0.010112226009368896, -0.04007953777909279, -0.009800254367291927, -0.01179019920527935], [0.05245785415172577, 0.014243006706237793, 0.024829890578985214, -0.1377430260181427, 0.08492162078619003, 0.07017941027879715, 0.02187037281692028, -0.06257028877735138, -0.12060118466615677, -0.024274002760648727, -0.043283894658088684, -0.10271164029836655, -0.02575465478003025, -0.03664889931678772, 0.0698152482509613, 0.013953697867691517, 0.03480246290564537, 0.04676580801606178, 0.11378580331802368, 0.06661312282085419, 0.027260344475507736, 0.10186998546123505, -0.22585132718086243, -0.036629095673561096, -0.27256065607070923, -0.042207811027765274, -0.11223611980676651, 0.00943280290812254, 0.11818095296621323, 0.28630325198173523, 0.15198498964309692, -0.0011874777264893055, -0.0008004677947610617, -0.004709934815764427, -0.01419402938336134, 0.04071863740682602, -0.045569684356451035, -0.11695192754268646, -0.012590734288096428, 0.051218755543231964, -0.047655586153268814, 0.025578100234270096, -0.04026784375309944, -0.038776300847530365, -0.004644774831831455, 0.07589203119277954, 0.010556625202298164, -0.04908917844295502, -0.040886491537094116, 0.024644384160637856, 0.06731407344341278, -0.02001269906759262, 0.017450109124183655, -0.008683279156684875, -0.0040985033847391605, -0.02018960379064083, -0.02308129146695137, 0.00903419591486454, 0.06050782650709152, 0.017117874696850777, 0.025116000324487686, 0.026707882061600685, 3.9440231914669496e-39, 2.322198183915943e-39, 0.0015395829686895013, -0.016655460000038147, -0.07002460211515427, -0.024932214990258217, -0.1842348724603653, 0.16757306456565857, -0.11269399523735046, 0.009939686395227909, 0.13194596767425537, -0.03781956061720848, 0.05733748897910118, 0.08418391644954681, -0.019622066989541054, -0.03900884836912155, 0.09693093597888947, -0.004779732320457697, 0.041423190385103226, -0.08937127143144608, -0.0256634671241045, -0.006004174239933491, -0.06119396165013313], [-0.03312429413199425, -0.03024289570748806, -0.03996844217181206, -0.04074448347091675, 0.1259310245513916, 0.08046190440654755, 0.11235348880290985, -0.06206804886460304, 0.07181960344314575, -0.06315823644399643, -0.061650991439819336, -0.014330867677927017, -0.07796750962734222, -0.03253871947526932, -0.07764434814453125, -0.03088006190955639, 0.0867130234837532, 0.021741708740592003, 0.019136792048811913, -0.01463496033102274, -0.1021069809794426, 0.05620798468589783, -0.15328213572502136, 0.06559989601373672, 0.036365117877721786, -0.037749920040369034, 0.006280808709561825, -0.051771022379398346, -0.030028842389583588, 0.13775192201137543, -0.015805192291736603, 0.04362634941935539, 0.07996995747089386, -0.02617548406124115, -0.027228614315390587, 0.02826789766550064, -0.035630472004413605, 0.04705127701163292, -0.060235798358917236, 0.07720457762479782, -0.051922980695962906, 0.003475442761555314, 0.03453242778778076, -0.019719600677490234, 0.06396640837192535, 0.07359258830547333, -0.01375782210379839, -0.027572227641940117, 0.02638060785830021, -0.06436126679182053, 0.13820195198059082, -0.03456653654575348, -0.04963631555438042, 0.07381124049425125, -0.037748195230960846, 0.083550363779068, 0.044413138180971146, 0.04075421765446663, 0.09101713448762894, 0.02007775567471981, -0.022758763283491135, 0.02575855329632759, -6.5314353266364e-39, -5.5990645778163115e-39, 0.019676366820931435, -0.07928086817264557, 0.007428858429193497, 0.04900725930929184, -0.06554987281560898, -0.12290061265230179, 0.03880014643073082, 0.10286391526460648, 0.006300774402916431, -0.009607130661606789, -0.09316616505384445, -0.06756648421287537, 0.03994600102305412, 0.05934188514947891, 0.030475320294499397, -0.13313165307044983, 0.002689182758331299, -0.03776044771075249, 0.037536896765232086, 0.08376824110746384, 0.007823601365089417], [-0.03941826894879341, 0.11181585490703583, -0.059764426201581955, 0.032410576939582825, -0.04473971575498581, 0.034225527197122574, -0.100692518055439, 0.007629935164004564, 0.026889190077781677, -0.038753870874643326, -0.104924775660038, 0.09637316316366196, 0.026990970596671104, -0.04142938181757927, -0.012884127907454967, -0.024541551247239113, -0.047095127403736115, 0.05745889991521835, -0.02308075688779354, -0.03491012379527092, -0.052168190479278564, -0.047131843864917755, 0.04335474595427513, 0.08295968174934387, -0.007411167956888676, -0.10402607917785645, 0.046623993664979935, 0.16513706743717194, 0.04690590873360634, -0.04204573109745979, 0.03271954879164696, 0.03234100341796875, 0.0022049653343856335, 0.023846784606575966, -0.010564113035798073, 0.03396341949701309, -0.00408349372446537, 0.0059043108485639095, -0.0014575092354789376, -0.06899414956569672, -0.043567508459091187, -0.061208926141262054, 0.011160304769873619, -0.05874868109822273, -0.029544269666075706, -0.0544063076376915, 0.07452916353940964, 0.024660682305693626, 0.08978403359651566, 0.08256494253873825, -0.013423819094896317, 0.01583794318139553, 0.042907193303108215, 0.11551592499017715, -0.021337389945983887, 0.09225315600633621, -0.05695681646466255, 0.02129368484020233, 0.09308232367038727, 0.026993414387106895, 0.05909451097249985, 0.03616664558649063, -5.092800666028113e-39, -3.0012113677891764e-39, 0.05129838362336159, 0.04454309865832329, 0.025370202958583832, -0.03230781480669975, 0.016155967488884926, 0.11319082230329514, 0.0025877528823912144, 0.04344746097922325, 0.05084911361336708, -0.010325551964342594, -0.045421916991472244, 0.0755867063999176, 0.038939133286476135, -0.01563277654349804, 0.06388413906097412, 0.020611563697457314, -0.011140433140099049, -0.060710836201906204, -0.040725067257881165, -0.05026870220899582, 0.014198205433785915], [0.0565616711974144, -0.03926312178373337, 0.14576038718223572, 0.025428494438529015, 0.038030773401260376, 0.0809425339102745, 0.058110561221838, 0.09885634481906891, -0.036055415868759155, -0.0169646255671978, -0.03018348664045334, 0.07257030159235, 0.09825475513935089, -0.09556420892477036, 0.021200112998485565, -0.0161081962287426, -0.04249919578433037, 0.057279352098703384, 0.06670862436294556, 0.03052489459514618, 0.06993570923805237, 0.020525887608528137, 0.0348370261490345, 0.05980167165398598, -0.0952032282948494, -0.15318544209003448, -0.15084755420684814, -0.16221313178539276, 0.03099065274000168, 0.13981476426124573, 0.27587375044822693, 0.00971259269863367, 0.03470344468951225, 0.008582389913499355, 0.026899253949522972, 0.004259726498275995, -0.025683604180812836, -0.08649199455976486, -0.014798210002481937, -0.01017003133893013, -0.03681154176592827, 0.01632140390574932, 0.014431430026888847, 0.014842403121292591, -0.00829437468200922, -0.007339208386838436, 0.06748902052640915, 0.10672225058078766, 0.09140286594629288, -0.012660587206482887, 0.01569843478500843, 0.002258754801005125, 0.014995052479207516, 0.021632950752973557, -0.05183354765176773, 0.03336213901638985, 0.031670037657022476, 0.03758548945188522, -0.0028017708100378513, -0.043556276708841324, 0.07558339834213257, -0.016685763373970985, -1.9359919193572375e-39, 1.3119811015072176e-39, -0.013310841284692287, 0.08213916420936584, 0.09018583595752716, 0.07714416831731796, -0.13233555853366852, -0.23377783596515656, 0.023119758814573288, -0.11918311566114426, -0.06923378258943558, 0.001884895726107061, -0.011695397086441517, 0.04613254964351654, -0.03574995696544647, -0.009826311841607094, 0.07474087178707123, -0.05525399371981621, 0.1037064865231514, -0.06297287344932556, 0.043852802366018295, 0.026573235169053078, 0.02168469876050949], [-0.02901158109307289, 0.07407698780298233, 0.04826817661523819, -0.007819700986146927, 0.17901496589183807, -0.09498319774866104, 0.013431545346975327, 0.14348597824573517, 0.08189486712217331, -0.06711754202842712, 0.029216276481747627, -0.06884028762578964, -0.04090571776032448, -0.03297403082251549, 0.049891144037246704, -0.07209833711385727, 0.04093926027417183, -0.013092195615172386, -0.042040176689624786, -0.04159944877028465, -0.05423837527632713, 0.06497490406036377, -0.14745454490184784, 0.11653155833482742, -0.0755169689655304, -0.11939837783575058, -0.018465226516127586, -0.09543956816196442, -0.09386332333087921, 0.14866816997528076, -0.14896298944950104, -0.08934512734413147, 0.045455001294612885, 0.05160561576485634, -0.04566843435168266, 0.022255314514040947, 0.033295631408691406, -0.09410066157579422, -0.05092288926243782, -0.02085767686367035, -0.0019903050269931555, 0.03445157781243324, -0.020183918997645378, 0.08319742977619171, -0.034942593425512314, 0.07458239793777466, -0.029956821352243423, -0.021984541788697243, 0.005760020576417446, -0.044414203613996506, 0.0758444294333458, -0.1269545555114746, -0.005752874072641134, -0.07346124202013016, 0.02671884186565876, 0.08454633504152298, 0.1478034406900406, 0.000914936070330441, -0.013370842672884464, 0.09813220798969269, 0.007150451187044382, 0.047330982983112335, 1.7778007370180732e-39, -3.1741175853022156e-39, -0.037779416888952255, 0.10078401118516922, -0.04114823043346405, -0.02677845023572445, 0.1257173866033554, 0.037747301161289215, 0.031615205109119415, -0.02328808605670929, -0.0469389334321022, -0.0047470517456531525, -0.08808019757270813, 0.011430004611611366, -0.08478562533855438, -0.026615096256136894, 0.0761900395154953, 0.04537781700491905, -0.0011201062006875873, 0.051834724843502045, 0.08728309720754623, 0.014481146819889545, 0.04602167382836342], [0.012065359391272068, 0.037610795348882675, 0.1430235356092453, -0.02386621944606304, 0.08834094554185867, 0.10167486220598221, 0.07824056595563889, -0.01988033577799797, -0.018880052492022514, -0.07170730829238892, 0.08002065867185593, 0.02608232945203781, -0.025319086387753487, -0.01108856312930584, 0.11204519122838974, -0.08500785380601883, 0.04192179813981056, 0.010194807313382626, 0.11473192274570465, 0.034233108162879944, 0.0782255008816719, 0.009380774572491646, -0.059225890785455704, -0.03733383119106293, -0.14744099974632263, -0.04093609005212784, -0.1910628080368042, 0.01984509825706482, 0.07173019647598267, 0.24698208272457123, 0.27533572912216187, -0.007202372886240482, 0.059624336659908295, 0.11265235394239426, 0.03408529981970787, 0.010534565895795822, 0.024174289777874947, 0.024517331272363663, 0.03772205114364624, -0.052926018834114075, 0.06978294253349304, 0.09312351047992706, -0.025975095108151436, 0.0948668122291565, -0.0407840795814991, -0.06805141270160675, -0.07257355749607086, 0.031402066349983215, -0.05986669287085533, -0.030386650934815407, -0.026655852794647217, 0.0214106235653162, -0.06040806695818901, -0.03780936822295189, 0.02973601408302784, 0.005448342300951481, -0.009443583898246288, 0.06737887114286423, -0.003487224690616131, -0.029428711161017418, -0.011610566638410091, -0.008895324543118477, 5.446834519144385e-39, 2.190221091948903e-39, -0.04612129554152489, 0.0321631096303463, -0.019865913316607475, 0.03425917401909828, -0.18634861707687378, -0.008002214133739471, -0.17348244786262512, -0.07268054783344269, -0.042602792382240295, -0.09037858247756958, 0.0053208013996481895, -0.025020990520715714, 0.07324699312448502, 0.05794490873813629, 0.10212884843349457, 0.016949443146586418, -0.012134520336985588, 0.02993994578719139, 0.014743861742317677, -0.08379440754652023, -0.010810915380716324], [-0.044660892337560654, -0.10439518839120865, -0.022832488641142845, 0.1187138482928276, -0.013116578571498394, 0.13991853594779968, -0.044882845133543015, -0.015736840665340424, -0.0784478634595871, -0.15659768879413605, 0.06324929744005203, 0.03192519396543503, -0.076144278049469, -0.019583001732826233, 0.1366073489189148, 0.10033510625362396, -0.13220295310020447, -0.06701063364744186, 0.21730957925319672, 0.07330626249313354, 0.1086253821849823, 0.011586238630115986, 0.02179405838251114, 0.0333818756043911, -0.17533504962921143, -0.055547818541526794, -0.1502360701560974, -0.054162152111530304, 0.18815608322620392, -0.12148239463567734, 0.31408146023750305, 0.06266175955533981, -0.08587139844894409, -0.08943016827106476, 0.053217627108097076, 0.08675981312990189, -0.023871758952736855, 0.09236621111631393, 0.04925846680998802, 0.023390956223011017, -0.04182255640625954, 0.07345005124807358, 0.027616266161203384, -0.016142457723617554, 0.04526711255311966, -0.07227886468172073, 0.006970403250306845, 0.061943523585796356, 0.09994874894618988, 0.03451130911707878, 0.049423664808273315, 0.019013501703739166, -0.06507092714309692, -0.03095145709812641, 0.011639349162578583, 0.012781262397766113, 0.001491685165092349, 0.05678749457001686, 0.008531628176569939, 0.00564452214166522, 0.03701922670006752, 0.004361194092780352, 2.6506849647291094e-39, 3.517808454453306e-39, -0.04620115086436272, 0.19807873666286469, 0.22300544381141663, 0.07960779964923859, -0.021398603916168213, 0.06722182780504227, -0.0972069799900055, 0.022433308884501457, 0.07378112524747849, 0.0002005744754569605, -0.018117601051926613, -0.07413244992494583, -0.036015916615724564, -0.08678057789802551, -0.04392242059111595, -0.09303638339042664, 0.09261821210384369, -0.0017934837378561497, -0.08944042026996613, -0.06518340110778809, 0.03792428970336914], [-0.07660040259361267, 0.01852426677942276, -0.12375805526971817, -0.059647105634212494, -0.07251425087451935, 0.0677487924695015, -0.007811605930328369, 0.05899272859096527, 0.06866692006587982, 0.04228164255619049, -0.08750884979963303, 0.03450421988964081, -0.029034491628408432, -0.023855874314904213, -0.007159655913710594, -0.08628615736961365, -0.12680697441101074, -0.01706325262784958, 0.035539016127586365, 0.037181876599788666, -0.11210262775421143, -0.05217241123318672, 0.0800916776061058, -0.04565644636750221, -0.0850493535399437, 0.0010995898628607392, -0.10720423609018326, 0.14203959703445435, 0.08511720597743988, -0.12247931957244873, 0.06385805457830429, 0.08372940123081207, 0.02331915870308876, 0.051445119082927704, -0.015072681941092014, -0.029009640216827393, -0.012888621538877487, 0.0131013048812747, 0.027360131964087486, 0.051383551210165024, 0.01810842752456665, -0.03590843826532364, 0.03267722576856613, 0.03841635212302208, -0.08354035019874573, -0.06260474771261215, 0.028869464993476868, 0.13783128559589386, 0.048244018107652664, -0.029635844752192497, -0.0939716324210167, 0.09638231992721558, -0.07599373906850815, 0.11102915555238724, 0.08150021731853485, 0.03484119474887848, 0.052977800369262695, 0.02251732349395752, 0.05544675886631012, 0.1190180629491806, 0.04103543236851692, -0.0705237090587616, -3.921785986136579e-39, 5.519023810832542e-39, -0.06437245011329651, 0.16158106923103333, 0.04597681015729904, -0.05358472466468811, 0.007630905136466026, 0.07069247215986252, -0.08047019690275192, -0.01864582672715187, 0.03570938482880592, 0.07662400603294373, -0.00612229760736227, -0.15395398437976837, -0.05161597952246666, -0.061798449605703354, -0.1069432869553566, -0.02737029455602169, 0.021916775032877922, -0.1731095016002655, -0.08545014262199402, -0.07231017202138901, -0.06039666011929512], [-0.049961213022470474, -0.010746492072939873, 0.07909075915813446, 0.09569700062274933, 0.2629806697368622, 0.16388607025146484, 0.09863877296447754, 0.07552015036344528, 0.04472106695175171, -0.0688970610499382, 0.05601556599140167, 0.11199766397476196, -0.07341098040342331, -0.08878087997436523, -0.010689105838537216, -0.10574878752231598, -0.024968519806861877, -0.028696376830339432, 0.021589243784546852, 0.03614906966686249, -0.052265577018260956, 0.03740045800805092, -0.055612966418266296, 9.872461669147015e-05, -0.02292139083147049, 0.043365392833948135, -0.019894177094101906, -0.008584300987422466, 0.00512115890160203, 0.28317898511886597, 0.0821889117360115, -0.011212150566279888, 0.06945125758647919, -0.008124860003590584, -0.04096556082367897, -0.05266968160867691, 0.06376684457063675, 0.004833096172660589, 0.10348229110240936, -0.02973235957324505, -0.06464805454015732, 0.06765241175889969, 0.016619855538010597, 0.03850647807121277, 0.014180239289999008, -0.07491575181484222, -0.046036142855882645, -0.048343874514102936, -0.10966482013463974, 0.0035883362870663404, 0.014918911270797253, -0.009150724858045578, -0.014476373791694641, -0.11523374915122986, -0.05996551364660263, 0.04888496920466423, 0.03522113338112831, -0.006560842040926218, 0.03544554486870766, 0.03015793114900589, -0.04050200432538986, -0.012547388672828674, 3.572932733442916e-39, -1.0633599253697799e-39, 0.021048692986369133, -0.10406503081321716, -0.16141299903392792, 0.004540041089057922, -0.11066670715808868, -0.42244550585746765, 0.2709825932979584, 0.08333220332860947, 0.010253775864839554, -0.01826304756104946, -0.08696908503770828, 0.05093354731798172, 0.038294970989227295, 0.042270101606845856, 0.0690745934844017, 0.04104336351156235, 0.032072726637125015, 0.001640420057810843, -0.07782614976167679, -0.08657892793416977, 0.03495420143008232], [0.04770917817950249, 0.03875165805220604, 0.04641145467758179, 0.06383385509252548, 0.13923190534114838, 0.004794307518750429, 0.11798273772001266, -0.11713825166225433, -0.00711800716817379, -0.0032225220929831266, -0.00958225503563881, -0.006484299432486296, 0.05464646592736244, 0.02849232591688633, -0.05486930161714554, -0.09427393227815628, -0.025500213727355003, -0.010349198244512081, 0.031112242490053177, 0.019115595147013664, 0.03102058917284012, 0.2049909234046936, -0.21463452279567719, -0.12377512454986572, -0.12963201105594635, 0.03457130119204521, 0.029909122735261917, -0.013401598669588566, -0.01078723557293415, 0.2883950173854828, 0.15206700563430786, -0.024480445310473442, -0.03195923939347267, 0.039454538375139236, 0.12278467416763306, -0.01223338395357132, -0.08573269098997116, 0.062254901975393295, -0.07732097804546356, 0.041210759431123734, 0.03581152856349945, 0.008235923945903778, -0.05692177638411522, -0.07263774424791336, 0.015358127653598785, 0.043854646384716034, -0.0551002100110054, 0.013975054025650024, -0.052192043513059616, -0.041748132556676865, -0.03555169329047203, 0.007262757513672113, 0.010565261356532574, 0.05282573774456978, -0.02154579386115074, -0.022331340238451958, -0.019682496786117554, 0.04772191122174263, -0.013709736056625843, -0.012320523150265217, -0.03511565178632736, -0.01905416138470173, 1.0433451794038285e-39, -1.9242406304354096e-38, 0.058626674115657806, -0.10288459807634354, -0.0857180655002594, -0.02636229246854782, -0.10913334786891937, 0.09423186630010605, -0.11468174308538437, 0.09918577969074249, 0.10524718463420868, -0.054275792092084885, 0.01086428388953209, -0.05578048899769783, -0.02606835775077343, -0.0055490657687187195, 0.1000867560505867, -0.029113417491316795, 0.017089927569031715, -0.08062971383333206, -0.1564045250415802, -0.014362819492816925, -0.013209384866058826], [-0.020629260689020157, 0.09693054854869843, -0.12052425742149353, -0.035579074174165726, -0.08498728275299072, 0.08034755289554596, -0.001607355079613626, -0.03550902381539345, 0.08494788408279419, -0.002629434922710061, 0.05654645711183548, 0.02477787435054779, 0.055253900587558746, -0.007427172269672155, 0.009815115481615067, -0.06329691410064697, 0.05208013206720352, -0.051481038331985474, 0.03854835778474808, -0.09450050443410873, 0.040476374328136444, -0.13809022307395935, 0.018172306939959526, 0.0935634896159172, -0.09140440076589584, 0.04857197403907776, 0.033264223486185074, 0.2378697395324707, 0.020042428746819496, -0.09325765818357468, -0.00918542593717575, 0.033148620277643204, -0.0894673690199852, 0.011305845342576504, -0.03576875105500221, -0.020511459559202194, -0.05367012321949005, 0.01675899140536785, -0.06755692511796951, 0.03842344880104065, -0.007043580990284681, 0.04691622406244278, 0.030133238062262535, -0.014814693480730057, -0.044510405510663986, -0.037650272250175476, 0.06408718228340149, 0.0638117790222168, 0.0675579309463501, 0.035396452993154526, 0.027679182589054108, 0.12902005016803741, -0.06106926500797272, 0.07585108280181885, -0.01632443070411682, -0.07726441323757172, 0.0924069881439209, 0.016225792467594147, 0.06452071666717529, -0.08623652905225754, 0.10731548815965652, 0.05881628394126892, 2.0659833714003292e-39, 3.89638044497837e-40, -0.06178909167647362, 0.15075528621673584, 0.164087176322937, -0.05196860805153847, -0.03319639340043068, 0.11126203835010529, 0.028316855430603027, 0.11505924165248871, 0.0644068568944931, -0.03605096787214279, 0.025102434679865837, -0.0004335407284088433, 0.08780432492494583, 0.07896634191274643, -0.13245011866092682, 0.02611052617430687, -0.06776021420955658, -0.06678358465433121, 0.09036999940872192, -0.033562712371349335, 0.02840195968747139], [-0.06577897816896439, -0.03881972283124924, 0.07155682891607285, 0.060458481311798096, 0.1147928461432457, 0.2771066725254059, 0.09047173708677292, 0.10715663433074951, -0.15963943302631378, -0.06437315791845322, -0.059239570051431656, 0.07695041596889496, -0.013294672593474388, -0.07969839870929718, 0.12778612971305847, -0.022413546219468117, 0.024960651993751526, 0.048515722155570984, 0.17818763852119446, 0.08149674534797668, 0.0926365852355957, 0.043466512113809586, -0.09955503046512604, 0.01727014221251011, -0.27560386061668396, 0.010450334288179874, -0.11729960888624191, -0.05610552057623863, 0.12057673186063766, 0.15476198494434357, 0.30171138048171997, -0.026962339878082275, 0.03587591275572777, -0.027348896488547325, -0.029278697445988655, 0.0017914107302203774, -0.02104034274816513, -0.03336968645453453, -0.07266466319561005, 0.04126740247011185, -0.10078385472297668, 0.00738717382773757, -0.016528673470020294, 0.005721372086554766, -0.10664870589971542, -0.04919304698705673, 0.008569532074034214, 0.037576667964458466, -0.011447533033788204, 0.04864409938454628, -0.016989994794130325, -0.025275953114032745, 0.010127712972462177, 0.04145204648375511, -0.028551654890179634, 0.015702469274401665, 0.016314398497343063, 0.007329050451517105, 0.038033220916986465, 0.011501296423375607, -0.012179108336567879, -0.0009400147246196866, 2.9820752359603567e-40, 4.88197391077198e-39, -0.022367816418409348, 0.051521968096494675, -0.028058143332600594, 0.03815188631415367, -0.1738882064819336, -0.05200101062655449, -0.18710683286190033, -0.12306592613458633, 0.016859021037817, -0.0230883602052927, -0.05155180022120476, 0.03027014434337616, -0.027784356847405434, -0.047563109546899796, -0.0017077351221814752, 0.03250567615032196, 0.011248008348047733, -0.04947502911090851, 0.0840182974934578, -0.02401329018175602, -0.03375568613409996], [-0.004304680973291397, -0.09845546633005142, 0.026060203090310097, 0.06394088268280029, -0.12434879690408707, 0.182888001203537, 0.06207743659615517, -0.015734389424324036, -0.09600632637739182, -0.14999708533287048, 0.08157914131879807, -0.05616091191768646, -0.1049446165561676, 0.08048845082521439, -0.00988722313195467, 0.1273394227027893, -0.11632442474365234, -0.06841778755187988, 0.12716563045978546, 0.06917395442724228, 0.07983850687742233, 0.0019362634047865868, -0.0021271633449941874, -0.11095300316810608, -0.042390625923871994, -0.08697033673524857, -0.04759462922811508, 0.12845510244369507, 0.10471691191196442, -0.19045652449131012, 0.28852578997612, 0.004013665486127138, -0.04062710702419281, -0.03718644380569458, -0.02847369946539402, 0.14575518667697906, -0.030118165537714958, 0.015602637082338333, -0.011257294565439224, -0.03136568143963814, 0.06276089698076248, -0.0180397666990757, -0.009581092745065689, 0.03805077075958252, -0.02599029242992401, 0.04420746490359306, -0.03431190177798271, 0.10056502372026443, 0.10407707840204239, -0.019370635971426964, 0.04734376072883606, 0.036323241889476776, -0.014718250371515751, 0.02997182123363018, 0.08023492246866226, -0.021153897047042847, -0.005973837338387966, 0.04396890476346016, 0.01714109629392624, 0.02288571372628212, 0.05894992873072624, -0.004536954686045647, 5.956698366687434e-39, -1.667292938822954e-39, -0.0281300637871027, 0.15285073220729828, 0.048820655792951584, 0.041545603424310684, 0.005011140834540129, -0.0955875888466835, -0.10810920596122742, 0.011563124135136604, 0.07027480006217957, -0.011601930484175682, -0.013100817799568176, 0.0028187499847263098, 0.026416683569550514, 0.044728752225637436, 0.03148717060685158, 0.048080507665872574, 0.05222657322883606, 0.009744975715875626, 0.014789172448217869, 0.014366518706083298, 0.08996721357107162], [-0.03589485585689545, -0.08487232774496078, 0.10635750740766525, -0.06884349882602692, 0.2268022894859314, 0.09778598695993423, 0.04831467196345329, -0.03795824572443962, 0.024935560300946236, -0.11077487468719482, -0.04985489323735237, 0.07362332940101624, -0.054459430277347565, -0.09470262378454208, -0.033665068447589874, -0.00976366177201271, 0.0749741792678833, -0.04423191025853157, 0.059550702571868896, 0.013929021544754505, 0.08156225085258484, 0.19845740497112274, -0.0842079222202301, 0.026278197765350342, 0.023664169013500214, -0.0814797431230545, -0.008148131892085075, -0.053186699748039246, 0.10733415931463242, 0.19191113114356995, 0.12593859434127808, -0.050324831157922745, 0.043650150299072266, 0.03260846063494682, 0.07832355797290802, -0.02596930041909218, 0.007186624687165022, -0.07515707612037659, -0.04308609664440155, 0.034467898309230804, -0.019092582166194916, -0.05877520516514778, -0.044557858258485794, -0.0032221879810094833, 0.061437398195266724, 0.07985786348581314, 0.07590126246213913, 0.005942992400377989, -0.03856901079416275, -0.05980532616376877, 0.037223197519779205, -0.012030523270368576, -0.0032896450720727444, -0.027908973395824432, -0.03850514441728592, 0.04317472130060196, -0.01737171970307827, 0.050467632710933685, 0.07341297715902328, -0.0044273198582232, -0.006812663748860359, 0.028350627049803734, 1.5305346164956377e-39, 5.90034795154154e-39, 0.08247388899326324, -0.06196918711066246, -0.06097999960184097, -0.009515237994492054, -0.11258040368556976, 0.09009367972612381, -0.025557637214660645, -0.028517529368400574, -0.020852534100413322, 0.004175959154963493, 0.021833568811416626, 0.037157632410526276, -0.07132524996995926, -0.001607472775503993, -0.03274443745613098, 0.014647015370428562, 0.04194288328289986, -0.020448099821805954, 0.049936383962631226, -0.0445125550031662, 0.050938237458467484], [0.04090939834713936, 0.041203975677490234, 0.070457324385643, 0.04984226077795029, 0.02766711637377739, 0.010941509157419205, -0.014091513119637966, 0.04069457948207855, 0.02511359564960003, -0.01346574630588293, -0.0668109878897667, 0.03567662462592125, -0.06394227594137192, -0.009541071020066738, -0.017113933339715004, -0.06739222258329391, 0.0997374951839447, -0.020820459350943565, 0.12529359757900238, -0.031624093651771545, 0.009517868980765343, 0.044667404145002365, -0.07429888844490051, 0.04292934760451317, 0.030125269666314125, -0.08065161854028702, -0.06514689326286316, 0.00983010046184063, 0.10411359369754791, 0.16111186146736145, -0.004678398836404085, -0.054322801530361176, -0.01910415105521679, -0.06738156825304031, -0.03285098075866699, -0.015355827286839485, 0.04626920074224472, -0.06340914219617844, -0.07676325738430023, -0.018201416358351707, -0.04320148006081581, 0.13472560048103333, 0.002243408001959324, -0.003002978628501296, 0.022154778242111206, -0.02535654976963997, 0.0041612558998167515, 0.02447286993265152, -0.006675697863101959, 0.04687001556158066, 0.04551523178815842, -0.03897394239902496, 0.025713589042425156, 0.044594015926122665, 0.005126613657921553, -0.020321235060691833, 0.026721151545643806, 0.061882954090833664, 0.01047690212726593, -0.015225278213620186, -0.039322737604379654, 0.03784925118088722, -1.7706625226408026e-39, -6.285171134515957e-39, 0.03597746789455414, 0.004873830359429121, -0.07597577571868896, -0.04228746145963669, -0.06775612384080887, -0.24662962555885315, 0.14657644927501678, -0.11231597512960434, 0.002680653240531683, 0.023822752758860588, -0.002281399443745613, 0.08109834045171738, 0.070848748087883, 0.023574979975819588, 0.03458252549171448, -0.04403693601489067, -0.011105800978839397, -0.08567142486572266, 0.04190513864159584, 0.051518455147743225, 0.06751423329114914], [-0.04981635510921478, -0.11891677230596542, 0.024341465905308723, -0.038440968841314316, -0.18731583654880524, 0.109164297580719, -0.08548540621995926, 0.0013440919574350119, 0.02431051805615425, 0.019797716289758682, 0.05242575705051422, -0.07202832400798798, 0.009394501335918903, 0.11138791590929031, -0.04570946469902992, 0.033041682094335556, -0.10446624457836151, -0.08616204559803009, 0.09593512862920761, 0.09472744911909103, 0.03447572514414787, -0.21855974197387695, 0.1049148365855217, -0.03309273347258568, -0.14850230515003204, -0.08716437220573425, -0.0873299092054367, 0.15405745804309845, -0.05006994307041168, -0.2543822228908539, 0.16681940853595734, -0.03846612945199013, 0.0269241351634264, -0.06547803431749344, -0.027307933196425438, -0.014343117363750935, 0.05756288766860962, 0.014984146691858768, -0.026667825877666473, 0.003691281657665968, 0.01804138533771038, -0.035992495715618134, 0.008328759111464024, 0.013433489948511124, -0.003341692266985774, 0.07586873322725296, 0.019748514518141747, -0.03129556030035019, -0.022808551788330078, -0.00503116799518466, -0.018939955160021782, -0.03353038430213928, -0.028145166113972664, -0.015591838397085667, 0.007806228473782539, -0.009517465718090534, -0.04491966590285301, 0.016073333099484444, -0.02800738252699375, 0.04907738417387009, 0.03453884273767471, -0.015122119337320328, -1.1888532093423889e-39, 5.265562549799327e-39, 0.08574848622083664, -0.006200788076967001, 0.12303416430950165, 0.07181069999933243, -0.02902950346469879, 0.036870360374450684, -0.006441888399422169, 0.04644092917442322, -0.028253696858882904, 0.026637833565473557, -0.013314592652022839, 0.07275578379631042, 0.01006508618593216, 0.08150278031826019, 0.0847284123301506, 0.09206739813089371, 0.0605817511677742, 0.013325386680662632, 0.0726785659790039, -0.018994485959410667, 0.0731569305062294], [-0.004127484280616045, -0.04586704820394516, -0.009854075498878956, 0.10850221663713455, 0.04804420471191406, 0.10886494815349579, -0.011077851057052612, -0.054367490112781525, -0.12069716304540634, -0.1194932758808136, 0.059159327298402786, 0.05331997945904732, -0.12593981623649597, 0.08519499003887177, 0.09200149774551392, -0.04891568049788475, -0.11481980234384537, 0.021768292412161827, 0.04007115960121155, 0.07486329972743988, 0.021132556721568108, 0.07785838097333908, -0.12192025780677795, 0.025060223415493965, -0.10662056505680084, 0.02112540416419506, -0.05062949284911156, -0.07722689211368561, 0.07196149975061417, 0.12937472760677338, 0.14115551114082336, 0.04593580588698387, 0.05097359046339989, -0.020435739308595657, -0.11830998957157135, 0.030124347656965256, -0.010213686153292656, -0.04354672506451607, -0.06162845715880394, 0.02860666997730732, 0.06483063846826553, -0.06807933002710342, -0.005054379813373089, -0.061508845537900925, -0.06229095533490181, -0.10424506664276123, 0.09904110431671143, -0.012829790823161602, -0.09011203795671463, 0.007263366132974625, -0.05159303918480873, -0.017840005457401276, 0.023400673642754555, -0.002884793793782592, 0.04510745033621788, 0.052722081542015076, 0.014268684200942516, -0.02343938685953617, -0.023403331637382507, 0.016666462644934654, -0.016284773126244545, 0.02657347172498703, -4.838403337620728e-40, 3.0503016555914034e-38, -0.0035552976187318563, -0.04160401597619057, -0.06156871095299721, 0.03178291767835617, 0.07365677505731583, -0.38600659370422363, 0.41869857907295227, -0.07179318368434906, 0.027483228594064713, -0.056704748421907425, 0.013993673957884312, 0.08247941732406616, -0.06068848818540573, -0.1245163083076477, -0.02914033643901348, -0.03289182856678963, -0.0036402347031980753, 0.040235601365566254, -0.036552075296640396, 0.08642897754907608, -0.011852437630295753], [-0.02879655919969082, -0.1300073266029358, -0.037105292081832886, -0.09735090285539627, -0.11268419027328491, 0.12862488627433777, -0.08760957419872284, 0.05204909294843674, -0.01344611681997776, 0.02509278804063797, 0.10677272081375122, -0.08830875903367996, -0.04248590022325516, -0.06948923319578171, -0.05203020200133324, 0.019934723153710365, -0.07910510897636414, -0.07989482581615448, 0.06683850288391113, 0.09130504727363586, -0.015765774995088577, -0.18786083161830902, 0.12654919922351837, -0.052734989672899246, -0.013439012691378593, -0.09018176048994064, -0.03883429989218712, -0.006305053364485502, 0.17267893254756927, -0.22074848413467407, 0.04463775083422661, 0.10156398266553879, 0.011129016056656837, 0.006053924560546875, -0.041121359914541245, 0.0489891842007637, 0.0477379634976387, 0.03879498317837715, 0.09352778643369675, -0.07260674983263016, -0.021752823144197464, 0.02464720420539379, 0.03864008188247681, -0.05289744958281517, 0.06014842912554741, -0.03306277468800545, -0.06778033077716827, 0.07793013006448746, -0.008818306028842926, -0.12847214937210083, 0.043066512793302536, 0.03450813889503479, 0.0793428122997284, 0.053023576736450195, -0.03150361776351929, -0.012167458422482014, 0.08067157119512558, 0.024359188973903656, 0.03667714074254036, 0.057723771780729294, 0.04627702757716179, -0.02427963726222515, -3.537526125144821e-39, 1.872710682006793e-39, 0.07616059482097626, 0.006577948108315468, 0.001317547052167356, -0.05456855148077011, 0.012934663332998753, 0.09480311721563339, -0.016003906726837158, 0.09458620846271515, 0.012370478361845016, -0.05142476409673691, -0.08763652294874191, 0.0362015999853611, 0.06964201480150223, 0.017033427953720093, -0.015886731445789337, 0.02404409646987915, -0.055887870490550995, -0.007167764939367771, 0.02148461528122425, -0.02283249795436859, -0.06165134906768799], [0.06605544686317444, -0.06672357767820358, -0.024956535547971725, 0.05598452687263489, -0.06478564441204071, 0.0828334167599678, 0.02264794521033764, 0.0851668119430542, -0.04587593674659729, 0.031692929565906525, -0.012824943289160728, -0.0561719574034214, 0.09311685711145401, -0.014675512909889221, 0.0143083231523633, -0.10158158093690872, -0.012962847016751766, 0.060946445912122726, -0.024699227884411812, 0.028806235641241074, 0.03596862778067589, -0.17398880422115326, 0.07607647031545639, -0.08448036015033722, -0.15939225256443024, 0.04017573222517967, 0.10789211839437485, 7.688812911510468e-05, 0.04881754890084267, -0.22328178584575653, 0.04572801664471626, -0.009799530729651451, -0.05411616712808609, 0.03982509672641754, 0.01869785785675049, 0.028167204931378365, 0.0017846478149294853, 0.009384103119373322, 0.045684564858675, -0.005836259573698044, 0.022737085819244385, 0.0061006550677120686, 0.032199427485466, -0.057668741792440414, -0.015368446707725525, -0.07031362503767014, -0.036780353635549545, -0.056364335119724274, 0.10239054262638092, -0.039130330085754395, -0.0014496727380901575, 0.003337873611599207, 0.0940566435456276, 0.0011999079724773765, -0.05490574613213539, 0.05155321583151817, -0.016841739416122437, 0.014673166908323765, 0.08734777569770813, 0.07344936579465866, -0.04193118214607239, -0.07030145823955536, -3.534193837396656e-39, 5.6494706848765395e-39, -0.05458163842558861, 0.04143226519227028, 0.004942532628774643, 0.029813211411237717, -0.021821804344654083, -0.01366078108549118, -0.019702747464179993, -0.0743604525923729, -0.02377876080572605, -0.07650651037693024, -0.01811298169195652, -0.04027879238128662, -0.03631189465522766, 0.025752058252692223, -0.07563034445047379, -0.07623641937971115, -0.04268909618258476, -0.049146585166454315, 3.315728099551052e-05, -0.04325499385595322, 0.11388598382472992], [0.09687677025794983, -0.01797468401491642, 0.0765230730175972, -0.00553935905918479, 0.17157770693302155, -0.0027987489011138678, 0.12028904259204865, -0.10553284734487534, -0.14175239205360413, -0.023027678951621056, 0.008156194351613522, -0.012372003868222237, 0.0891333669424057, 0.08816451579332352, 0.08908645063638687, -0.01480160839855671, -0.08443603664636612, -0.05692650377750397, 0.03336406499147415, -0.0023101442493498325, 0.0418597087264061, 0.18121826648712158, -0.1388011872768402, 0.06502487510442734, -0.041102249175310135, 0.047187525779008865, -0.052697669714689255, -0.10689927637577057, 0.06338173896074295, 0.1668132096529007, 0.029070794582366943, 0.05478214845061302, -0.003256003139540553, 0.028676019981503487, 0.0648907870054245, 0.041479576379060745, 0.02218809351325035, 0.1207050010561943, 0.009490530006587505, -0.05687606707215309, 0.10042670369148254, -0.021879393607378006, -0.09245962649583817, -0.07344335317611694, 0.11668434739112854, 0.027471838518977165, -0.03319874778389931, -0.004381323233246803, -0.07483328878879547, -0.015226511284708977, 0.03231682628393173, 0.021461281925439835, -0.0057058692909777164, -0.08069410920143127, -0.04179096966981888, 0.03412441909313202, 0.029749294742941856, 0.026138992980122566, -0.023763490840792656, -0.011861706152558327, 0.06496456265449524, 0.05742938444018364, -2.2089718667000335e-39, 5.220187104226025e-40, -0.05941682681441307, 0.019050950184464455, -0.005785004701465368, 0.07170388847589493, 0.2935463786125183, 0.08372864127159119, 0.27674615383148193, 0.04973797872662544, 0.003391874488443136, 0.010041444562375546, -0.026452945545315742, -0.011555728502571583, -0.0539570190012455, -0.0512143038213253, -0.013944131322205067, -0.07406826317310333, 0.001075059175491333, 0.0689084604382515, 0.015010683797299862, 0.07409805804491043, -0.05691216513514519], [-0.006867561489343643, -0.03151331841945648, 0.06674175709486008, -0.05365576595067978, 0.13121218979358673, 0.17734843492507935, 0.0532459020614624, -0.06587338447570801, -0.023605333641171455, -0.14978793263435364, 0.05310557037591934, 0.049430493265390396, 0.01625610515475273, 0.07140921801328659, -0.10390428453683853, 0.0005313092260621488, 0.10202975571155548, -0.06967838108539581, 0.032732754945755005, 0.1183074340224266, 0.04163865000009537, 0.18539869785308838, -0.21806226670742035, 0.03267207369208336, -0.15393593907356262, 0.03252570703625679, 0.016733339056372643, -0.15710961818695068, 0.06676080077886581, 0.21635238826274872, 0.21611616015434265, 0.0277452003210783, 0.009269267320632935, 0.018643004819750786, 0.04058181867003441, 0.002152476692572236, 0.03273111954331398, 0.08228866010904312, -0.08776571601629257, -0.02540667913854122, 0.072245292365551, 0.01920139789581299, -0.025771835818886757, 0.004355287179350853, -0.011685064062476158, 0.01963173784315586, 0.042747605592012405, -0.0659257173538208, 0.004862281493842602, 0.04548611864447594, 0.04893498867750168, -0.003038309747353196, 0.020863546058535576, -0.07195242494344711, -0.035203199833631516, 0.0028080474585294724, 0.04925253987312317, -0.002219261135905981, -0.017359385266900063, -0.0290061105042696, 0.028864098712801933, 0.023691145703196526, -1.5043429468989425e-39, -2.6092345561543813e-38, 0.03104310855269432, -0.020492637529969215, 0.017376739531755447, 0.0478789396584034, -0.08118819445371628, 0.07909946143627167, -0.18519918620586395, 0.0812382772564888, 0.021023085340857506, 0.0454108864068985, 0.012318582274019718, 0.003822383238002658, 0.01658664084970951, 0.0106118805706501, 0.08846022933721542, -0.015335021540522575, -0.020978577435016632, 0.05168801546096802, -0.15997599065303802, 0.03051792085170746, -0.032373957335948944], [0.028350461274385452, -0.08756229281425476, 0.06263352185487747, 0.010279376059770584, 0.19107887148857117, -0.040555573999881744, -0.010030144825577736, -0.013614268973469734, -0.07944700121879578, -0.013655552640557289, -0.09235616773366928, 0.10545770823955536, -0.03046702779829502, -0.025723174214363098, -0.01570969633758068, -0.022644512355327606, -0.08302731066942215, 0.04403071478009224, 0.1104770377278328, 0.0773928165435791, 0.00328182615339756, 0.12589441239833832, -0.1464439183473587, 0.047126442193984985, -0.04050267115235329, -0.03025304712355137, -0.12155045568943024, -0.12024731189012527, 0.060377273708581924, 0.16766303777694702, 0.027193598449230194, 0.06624720245599747, -0.009552358649671078, 0.0287505853921175, 0.004440112970769405, 0.034583646804094315, 0.011424503289163113, 0.00912145059555769, -0.013423980213701725, 0.021823540329933167, 0.11580461263656616, 0.007395618129521608, 0.012886766344308853, 0.05243512988090515, -0.03032451495528221, -0.06135386601090431, 0.0012112786062061787, -0.02906801924109459, -0.05085199698805809, -0.02806609869003296, 0.01118649635463953, 0.02764488011598587, 0.04146420955657959, 0.08196679502725601, -0.021183745935559273, -0.06265834718942642, -0.006067830137908459, -0.014940209686756134, -0.012026398442685604, -0.03277309983968735, 0.025212595239281654, -0.026753412559628487, 1.099987064630302e-39, 5.127335666681398e-39, -0.009073310531675816, -0.05012011528015137, 0.03153933212161064, 0.0721013993024826, -0.17829261720180511, -0.30263152718544006, 0.22336068749427795, -0.06513286381959915, -0.08106198906898499, -0.020124994218349457, -0.007006209343671799, -0.014496107585728168, -0.07265935838222504, -0.07317677140235901, 0.0389307402074337, 0.05314592644572258, 0.07144635170698166, -0.012976029887795448, 0.006619779858738184, -0.0421006865799427, 0.016658009961247444], [0.06979591399431229, 0.042772792279720306, 0.028007259592413902, 0.03512011095881462, 0.028040114790201187, 0.05043795332312584, -0.003456504549831152, -0.09569469094276428, -0.08791397511959076, -0.08350444585084915, 0.03702856972813606, 0.047640360891819, 0.010607479140162468, -0.03834577649831772, 0.08709578961133957, 0.0027929560746997595, 0.08936122059822083, 0.03851274400949478, -0.014733729884028435, 0.014196914620697498, 0.10191115736961365, 0.20118124783039093, -0.1921142041683197, -0.003052219282835722, -0.15377797186374664, 0.11074922233819962, 0.034836314618587494, -0.023308338597416878, 0.06817527115345001, 0.1891448050737381, 0.202131450176239, -0.011062673293054104, 0.034733451902866364, -0.0011933362111449242, 0.0016575261252000928, -0.04268670454621315, 0.000358546240022406, -0.004534794017672539, -0.07135792076587677, -0.012401198036968708, 0.03036983497440815, -0.1326673924922943, 0.04632643610239029, -0.1650659292936325, -0.016038034111261368, -0.11101828515529633, -0.021946517750620842, 0.020131638273596764, 0.025340721011161804, 0.07217878848314285, 0.0034953339491039515, 0.026041487231850624, -0.03392913565039635, 0.041294850409030914, 0.08468891680240631, -0.10126277804374695, -0.03765469789505005, 0.021221766248345375, -0.008764897473156452, 0.004123298451304436, -0.08232470601797104, 0.031794723123311996, 2.135261605658698e-38, 1.6294847852166988e-38, -0.09526075422763824, 0.0616472102701664, -0.11068969964981079, 0.04786965623497963, -0.11484332382678986, -0.036284372210502625, 0.011440004222095013, -0.0947994515299797, -0.07499837875366211, 0.035514041781425476, -0.043565139174461365, 0.02174961194396019, -0.05660967528820038, -0.03644941747188568, 0.012543879449367523, -0.042539529502391815, -0.03724641352891922, 0.0708625465631485, -0.12564867734909058, 0.13682708144187927, -0.08110921829938889], [0.09848316013813019, 0.014536594040691853, 0.03963571414351463, -0.006132106296718121, 0.18928484618663788, 0.04403587058186531, 0.05879005789756775, 0.07983101904392242, -0.0580151192843914, 0.0792255625128746, 0.02138410694897175, -0.06920512765645981, -0.01794305630028248, 0.03658362105488777, -0.02712065540254116, 0.04795989394187927, -0.017513150349259377, 0.026023924350738525, -0.01693911850452423, 0.03338887169957161, 0.08590734750032425, 0.2026999145746231, -0.2104407399892807, -0.04946229234337807, -0.27321332693099976, -0.10659639537334442, 0.0131457494571805, -0.14300692081451416, 0.06906028836965561, 0.3572368621826172, 0.21418850123882294, -0.04874537140130997, 0.01180160790681839, 0.03671601042151451, 0.07364732027053833, 0.09975063055753708, 0.008689729496836662, 0.011758734472095966, -0.05223097652196884, 0.041876792907714844, -0.029224839061498642, 0.028861166909337044, -0.010447852313518524, -0.01668635383248329, 0.031156981363892555, -0.044602878391742706, 0.05099046602845192, 0.043070949614048004, -0.021198876202106476, -0.0076614487916231155, 0.012106805108487606, 0.026657788082957268, 0.011960324831306934, -0.02773086354136467, -0.03042900189757347, 0.04657404124736786, -0.021023528650403023, 0.004386802203953266, 0.022203460335731506, 0.01672920025885105, 0.011010473594069481, -0.00954254250973463, 3.717309915520766e-39, 6.162504269545891e-40, -0.08372550457715988, -0.0014691372634842992, -0.021874019876122475, 0.09690723568201065, 0.027978334575891495, 0.06949488073587418, -0.08897905051708221, -0.019555939361453056, 0.07916535437107086, 0.015564000234007835, -0.017797784879803658, 0.040943920612335205, -0.05713885650038719, 